{"learner":{"attributes":{"scikit_learn":"{\"_estimator_type\": \"classifier\"}"},"feature_names":["step","type","amount","oldbalanceOrg","newbalanceOrig","oldbalanceDest","newbalanceDest","is_blacklist_orig","is_blacklist_dest","errorBalanceOrig","errorBalanceDest"],"feature_types":["int","int","float","float","float","float","float","int","int","float","float"],"gradient_booster":{"model":{"cats":{"enc":[],"feature_segments":[],"sorted_idx":[]},"gbtree_model_param":{"num_parallel_tree":"1","num_trees":"100"},"iteration_indptr":[0,1,2,3,4,5,6,7,8,9,10,11,12,13,14,15,16,17,18,19,20,21,22,23,24,25,26,27,28,29,30,31,32,33,34,35,36,37,38,39,40,41,42,43,44,45,46,47,48,49,50,51,52,53,54,55,56,57,58,59,60,61,62,63,64,65,66,67,68,69,70,71,72,73,74,75,76,77,78,79,80,81,82,83,84,85,86,87,88,89,90,91,92,93,94,95,96,97,98,99,100],"tree_info":[0,0,0,0,0,0,0,0,0,0,0,0,0,0,0,0,0,0,0,0,0,0,0,0,0,0,0,0,0,0,0,0,0,0,0,0,0,0,0,0,0,0,0,0,0,0,0,0,0,0,0,0,0,0,0,0,0,0,0,0,0,0,0,0,0,0,0,0,0,0,0,0,0,0,0,0,0,0,0,0,0,0,0,0,0,0,0,0,0,0,0,0,0,0,0,0,0,0,0,0],"trees":[{"base_weights":[1.1322214E-7,1.7250975E0,-6.7261904E-1,7.209702E-1,1.9721494E0,-1.2720754E0,1.2120064E0,1.8299335E0,-1.8604732E-1,1.9913493E0,-1.9875239E-1,-8.3871365E-2,-1.5205699E0,1.7827657E0,-1.650583E0,-1.9740862E-1,1.9075922E0,2.1329492E-1,-1.9967268E-1,1.9956691E0,-1.9487065E-1,-1.6905951E0,7.6383084E-1,-1.7693253E0,-3.5893762E-1,1.8817054E0,2.6633772E-1,-1.815905E0,1.6685374E0,1.9401038E0,-1.9388756E-1,-1.9962743E-1,7.108228E-1,-1.4992468E-1,1.9960039E0,-1.8152051E0,-1.034947E0,1.3259988E0,-1.9978006E-1,-1.1967337E0,-1.9297771E0,5.1442605E-1,-1.8293203E0,1.4722689E0,1.965681E0,1.6964213E0,-1.995363E-1,-8.408405E-1,-1.9984561E-1,1.986154E-1,-1.890942E-1,1.9523399E-1,-1.8452269E-1,1.4976583E-1,-6.52219E-2,1.9973512E-1,1.7627643E-1,-1.5748951E-1,-1.998191E-1,2.4526304E-2,-1.9948094E-1,1.6676341E-1,7.835526E-2,1.21922724E-1,-1.8424256E-1,-1.9462033E-1,-9.4573855E-2,1.1149352E-1,-1.9976994E-1,-1.9985431E-1,4.3153763E-2,1.8260399E-1,-1.9931763E-1,-1.7410608E-1,1.9671655E-1,-1.9505353E-1,1.8756714E-1,-1.9949472E-1,1.9763176E-1],"categories":[],"categories_nodes":[],"categories_segments":[],"categories_sizes":[],"default_left":[0,0,0,0,0,0,0,0,0,0,0,0,0,0,0,0,0,0,0,0,0,0,0,0,0,0,0,0,0,0,0,0,0,0,0,0,0,0,0,0,0,0,0,0,0,0,0,0,0,0,0,0,0,0,0,0,0,0,0,0,0,0,0,0,0,0,0,0,0,0,0,0,0,0,0,0,0,0,0],"id":0,"left_children":[1,3,5,7,9,11,13,15,17,19,-1,21,23,25,27,-1,29,31,-1,33,-1,35,37,39,41,43,45,47,49,51,-1,-1,53,-1,55,57,59,61,-1,63,65,67,69,71,73,75,-1,77,-1,-1,-1,-1,-1,-1,-1,-1,-1,-1,-1,-1,-1,-1,-1,-1,-1,-1,-1,-1,-1,-1,-1,-1,-1,-1,-1,-1,-1,-1,-1],"loss_changes":[1.85581E5,1.1128672E4,1.3000327E5,8.912864E3,2.7413906E3,2.5777078E4,4.5373934E4,1.1814795E3,3.5254846E3,6.137969E2,0E0,2.056939E4,2.0863203E4,3.4733281E3,2.5364307E3,0E0,4.9240137E2,4.3932725E3,0E0,4.4859375E1,0E0,4.2426172E2,1.5351043E4,5.461203E3,1.6356117E4,7.444219E2,4.5939746E3,7.812168E2,2.5199426E2,1.8308789E2,0E0,0E0,3.4989612E3,0E0,7.71875E0,1.8952441E2,1.0269556E3,1.5210381E3,0E0,2.031176E4,7.489531E2,1.2056828E4,1.8166553E3,4.5436294E3,1.0265625E2,5.7242114E2,0E0,2.2646475E3,0E0,0E0,0E0,0E0,0E0,0E0,0E0,0E0,0E0,0E0,0E0,0E0,0E0,0E0,0E0,0E0,0E0,0E0,0E0,0E0,0E0,0E0,0E0,0E0,0E0,0E0,0E0,0E0,0E0,0E0,0E0],"parents":[2147483647,0,0,1,1,2,2,3,3,4,4,5,5,6,6,7,7,8,8,9,9,11,11,12,12,13,13,14,14,16,16,17,17,19,19,21,21,22,22,23,23,24,24,25,25,26,26,27,27,28,28,29,29,32,32,34,34,35,35,36,36,37,37,39,39,40,40,41,41,42,42,43,43,44,44,45,45,47,47],"right_children":[2,4,6,8,10,12,14,16,18,20,-1,22,24,26,28,-1,30,32,-1,34,-1,36,38,40,42,44,46,48,50,52,-1,-1,54,-1,56,58,60,62,-1,64,66,68,70,72,74,76,-1,78,-1,-1,-1,-1,-1,-1,-1,-1,-1,-1,-1,-1,-1,-1,-1,-1,-1,-1,-1,-1,-1,-1,-1,-1,-1,-1,-1,-1,-1,-1,-1],"split_conditions":[3.687636E4,1E0,2.0995334E5,9E0,4.07E2,6.724635E7,3.0836E2,1.53E2,3.0836E2,1.553323E4,-1.9875239E-1,1.08E2,6.0416E4,1E0,1.4412017E9,-1.9740862E-1,3.0836E2,5.84E2,-1.9967268E-1,1.08E2,-1.9487065E-1,5.88586E7,3.0836E2,9.2201E4,2.723766E8,3.2037484E5,7.5474706E5,6.292532E7,6.684091E5,1.00728E5,-1.9388756E-1,-1.9962743E-1,4.867873E7,-1.4992468E-1,7.85271E3,4.161439E5,6.09966E7,3.45528E7,-1.9978006E-1,4E1,2.553186E9,3.0836E2,7.7482665E6,4.6162E8,3.59441E5,3.09506E5,-1.995363E-1,6.30396E7,-1.9984561E-1,1.986154E-1,-1.890942E-1,1.9523399E-1,-1.8452269E-1,1.4976583E-1,-6.52219E-2,1.9973512E-1,1.7627643E-1,-1.5748951E-1,-1.998191E-1,2.4526304E-2,-1.9948094E-1,1.6676341E-1,7.835526E-2,1.21922724E-1,-1.8424256E-1,-1.9462033E-1,-9.4573855E-2,1.1149352E-1,-1.9976994E-1,-1.9985431E-1,4.3153763E-2,1.8260399E-1,-1.9931763E-1,-1.7410608E-1,1.9671655E-1,-1.9505353E-1,1.8756714E-1,-1.9949472E-1,1.9763176E-1],"split_indices":[6,1,3,0,5,9,4,3,4,6,0,3,3,1,2,0,4,3,0,3,0,2,4,5,10,3,6,10,6,5,0,0,10,0,6,6,2,2,0,3,2,4,5,2,6,3,0,2,0,0,0,0,0,0,0,0,0,0,0,0,0,0,0,0,0,0,0,0,0,0,0,0,0,0,0,0,0,0,0],"split_type":[0,0,0,0,0,0,0,0,0,0,0,0,0,0,0,0,0,0,0,0,0,0,0,0,0,0,0,0,0,0,0,0,0,0,0,0,0,0,0,0,0,0,0,0,0,0,0,0,0,0,0,0,0,0,0,0,0,0,0,0,0,0,0,0,0,0,0,0,0,0,0,0,0,0,0,0,0,0,0],"sum_hessian":[1.5993562E5,4.4865484E4,1.1507015E5,8.859696E3,3.6005785E4,8.7301766E4,2.7768379E4,3.9856416E3,4.874055E3,3.5832535E4,1.7324995E2,1.5100135E4,7.220163E4,2.3152482E4,4.6158955E3,7.9249985E1,3.9063916E3,3.9940552E3,8.799998E2,3.5793785E4,3.8749992E1,5.2148955E3,9.885239E3,5.946673E4,1.2734902E4,2.173419E4,1.4182928E3,4.3973223E3,2.1857324E2,3.8741416E3,3.2249992E1,7.334998E2,3.2605554E3,2.9999993E0,3.5790785E4,4.3805723E3,8.343231E2,8.21374E3,1.6714996E3,1.3018199E4,4.644853E4,7.9898306E3,4.7450723E3,3.7021719E3,1.8032018E4,8.6904297E2,5.492499E2,6.943231E2,3.702999E3,2.0107324E2,1.7499996E1,3.8621416E3,1.1999997E1,2.0671592E3,1.1933962E3,3.5577715E4,2.1307324E2,1.8978229E3,2.4827495E3,3.578232E2,4.7649988E2,5.0384346E3,3.1753054E3,2.7453054E3,1.0272895E4,4.5684957E4,7.635731E2,6.4488306E3,1.5409996E3,4.414749E3,3.303232E2,3.3596719E3,3.424999E2,6.7499986E0,1.8025268E4,4.024999E1,8.2879297E2,4.9274988E2,2.0157324E2],"tree_param":{"num_deleted":"0","num_feature":"11","num_nodes":"79","size_leaf_vector":"1"}},{"base_weights":[-3.6505262E-5,1.5677605E0,-6.107763E-1,6.538758E-1,1.7931366E0,-1.1547195E0,1.1015342E0,1.6630068E0,-1.6861612E-1,1.8105984E0,-1.8083872E-1,-7.6120935E-2,-1.3807551E0,1.6201125E0,-1.5010985E0,-1.7971303E-1,1.7336208E0,1.9291547E-1,-1.816092E-1,1.814532E0,-1.7758454E-1,-1.5343585E0,6.914557E-1,-1.6073865E0,-3.2534993E-1,1.7100508E0,2.4181779E-1,-1.6514748E0,1.516826E0,1.7632172E0,-1.7675921E-1,-1.8157129E-1,6.4243305E-1,-1.3929445E-1,1.8148413E0,-1.832193E-1,-1.2968417E0,1.1993985E0,-1.8169905E-1,-1.033719E0,-1.7416884E0,4.6497384E-1,-1.6625917E0,1.3366016E0,1.7867341E0,1.5406318E0,-1.8149503E-1,-7.645878E-1,-1.8175392E-1,1.8065946E-1,-1.7272812E-1,1.77439E-1,-1.6887246E-1,1.3557076E-1,-5.877191E-2,1.8171328E-1,1.6828074E-1,4.459342E-2,-1.5383272E-1,1.511616E-1,7.0631556E-2,1.4880137E-1,-1.738773E-1,-7.478752E-2,-1.7733286E-1,1.0066364E-1,-1.816906E-1,-1.817612E-1,3.8869232E-2,1.6575743E-1,-1.81312E-1,-1.6004398E-1,1.7880945E-1,-1.7773804E-1,1.7035888E-1,-1.8146022E-1,1.7974661E-1],"categories":[],"categories_nodes":[],"categories_segments":[],"categories_sizes":[],"default_left":[0,0,0,0,0,0,0,0,0,0,0,0,0,0,0,0,0,0,0,0,0,0,0,0,0,0,0,0,0,0,0,0,0,0,0,0,0,0,0,0,0,0,0,0,0,0,0,0,0,0,0,0,0,0,0,0,0,0,0,0,0,0,0,0,0,0,0,0,0,0,0,0,0,0,0,0,0],"id":1,"left_children":[1,3,5,7,9,11,13,15,17,19,-1,21,23,25,27,-1,29,31,-1,33,-1,35,37,39,41,43,45,47,49,51,-1,-1,53,-1,55,-1,57,59,-1,61,63,65,67,69,71,73,-1,75,-1,-1,-1,-1,-1,-1,-1,-1,-1,-1,-1,-1,-1,-1,-1,-1,-1,-1,-1,-1,-1,-1,-1,-1,-1,-1,-1,-1,-1],"loss_changes":[1.5181084E5,9.153602E3,1.0627299E5,7.299721E3,2.2455234E3,2.1111203E4,3.712881E4,9.680547E2,2.8868298E3,5.038203E2,0E0,1.6794805E4,1.7122844E4,2.843E3,2.0768623E3,0E0,4.042207E2,3.590268E3,0E0,3.7671875E1,0E0,3.636631E2,1.2527441E4,4.53875E3,1.3376804E4,6.142539E2,3.7594038E3,6.399238E2,2.0754709E2,1.5105273E2,0E0,0E0,2.8514595E3,0E0,7.6640625E0,0E0,1.2136304E3,1.2575498E3,0E0,1.9884166E4,1.50025E3,9.835224E3,1.4958037E3,3.7155186E3,8.516797E1,4.6936963E2,0E0,1.8553745E3,0E0,0E0,0E0,0E0,0E0,0E0,0E0,0E0,0E0,0E0,0E0,0E0,0E0,0E0,0E0,0E0,0E0,0E0,0E0,0E0,0E0,0E0,0E0,0E0,0E0,0E0,0E0,0E0,0E0],"parents":[2147483647,0,0,1,1,2,2,3,3,4,4,5,5,6,6,7,7,8,8,9,9,11,11,12,12,13,13,14,14,16,16,17,17,19,19,21,21,22,22,23,23,24,24,25,25,26,26,27,27,28,28,29,29,32,32,34,34,36,36,37,37,39,39,40,40,41,41,42,42,43,43,44,44,45,45,47,47],"right_children":[2,4,6,8,10,12,14,16,18,20,-1,22,24,26,28,-1,30,32,-1,34,-1,36,38,40,42,44,46,48,50,52,-1,-1,54,-1,56,-1,58,60,-1,62,64,66,68,70,72,74,-1,76,-1,-1,-1,-1,-1,-1,-1,-1,-1,-1,-1,-1,-1,-1,-1,-1,-1,-1,-1,-1,-1,-1,-1,-1,-1,-1,-1,-1,-1],"split_conditions":[3.687636E4,1E0,2.0995334E5,9E0,4.07E2,6.724635E7,3.0836E2,1.53E2,3.0836E2,1.553323E4,-1.8083872E-1,1.08E2,6.0416E4,1E0,1.4412017E9,-1.7971303E-1,3.0836E2,5.84E2,-1.816092E-1,1.08E2,-1.7758454E-1,3.4493692E7,3.0836E2,4.755199E4,2.723766E8,3.2037484E5,7.5474706E5,6.292532E7,6.684091E5,1.00728E5,-1.7675921E-1,-1.8157129E-1,4.867873E7,-1.3929445E-1,3.0836E2,-1.832193E-1,3.66562E7,3.45528E7,-1.8169905E-1,4E1,7.74927E7,3.0836E2,7.7482665E6,4.6162E8,3.59441E5,3.09506E5,-1.8149503E-1,6.30396E7,-1.8175392E-1,1.8065946E-1,-1.7272812E-1,1.77439E-1,-1.6887246E-1,1.3557076E-1,-5.877191E-2,1.8171328E-1,1.6828074E-1,4.459342E-2,-1.5383272E-1,1.511616E-1,7.0631556E-2,1.4880137E-1,-1.738773E-1,-7.478752E-2,-1.7733286E-1,1.0066364E-1,-1.816906E-1,-1.817612E-1,3.8869232E-2,1.6575743E-1,-1.81312E-1,-1.6004398E-1,1.7880945E-1,-1.7773804E-1,1.7035888E-1,-1.8146022E-1,1.7974661E-1],"split_indices":[6,1,3,0,5,9,4,3,4,6,0,3,3,1,2,0,4,3,0,3,0,10,4,5,10,3,6,10,6,5,0,0,10,0,4,0,9,2,0,3,2,4,5,2,6,3,0,2,0,0,0,0,0,0,0,0,0,0,0,0,0,0,0,0,0,0,0,0,0,0,0,0,0,0,0,0,0],"split_type":[0,0,0,0,0,0,0,0,0,0,0,0,0,0,0,0,0,0,0,0,0,0,0,0,0,0,0,0,0,0,0,0,0,0,0,0,0,0,0,0,0,0,0,0,0,0,0,0,0,0,0,0,0,0,0,0,0,0,0,0,0,0,0,0,0,0,0,0,0,0,0,0,0,0,0,0,0],"sum_hessian":[1.5854453E5,4.444657E4,1.1409795E5,8.793484E3,3.5653086E4,8.659119E4,2.7506766E4,3.9482634E3,4.845221E3,3.5481555E4,1.7153314E2,1.5002669E4,7.1588516E4,2.2936926E4,4.5698384E3,7.847511E1,3.8697883E3,3.974022E3,8.711994E2,3.544317E4,3.838068E1,5.173357E3,9.829312E3,5.893306E4,1.2655462E4,2.1531674E4,1.4052534E3,4.3533726E3,2.1646585E2,3.8378428E3,3.1945692E1,7.261678E2,3.247854E3,2.9829798E0,3.544019E4,2.292261E3,2.881096E3,8.1745454E3,1.6547662E3,1.1181257E4,4.77518E4,7.954765E3,4.700697E3,3.671212E3,1.786046E4,8.6148883E2,5.437646E2,6.874683E2,3.665904E3,1.99123E2,1.7342846E1,3.8259453E3,1.1897329E1,2.0557651E3,1.192089E3,3.4823066E4,6.171247E2,3.5052762E2,2.5305684E3,5.0039844E3,3.1705613E3,2.442866E3,8.738391E3,1.4741403E3,4.627766E4,6.429191E3,1.5255741E3,4.37052E3,3.3017664E2,3.3321252E3,3.390868E2,6.698518E0,1.7853762E4,3.9865673E1,8.2162317E2,4.8783084E2,1.9963745E2],"tree_param":{"num_deleted":"0","num_feature":"11","num_nodes":"77","size_leaf_vector":"1"}},{"base_weights":[-8.901737E-5,1.4482323E0,-5.628461E-1,6.007902E-1,1.6585485E0,-1.06311E0,1.0176715E0,1.5362768E0,-1.5453434E-1,1.6747049E0,-1.673441E-1,-6.998993E-2,-1.2724564E0,1.4964377E0,-1.3887373E0,-1.6633956E-1,1.6015345E0,1.7594591E-1,-1.6803193E-1,1.6783501E0,-1.6444153E-1,-1.4098326E0,6.319722E-1,-1.4831451E0,-2.984771E-1,1.5795722E0,2.2299534E-1,-1.5279005E0,1.4022752E0,1.6289238E0,-1.6370599E-1,9.0319514E-1,-8.752185E-1,-1.3041583E-1,1.6786417E0,-1.527962E0,-7.9426926E-1,1.0940052E0,-1.681122E-1,1.4470606E0,-1.5073904E0,4.2320865E-1,-1.535532E0,1.231208E0,1.651327E0,1.4205166E0,-1.6793002E-1,-7.071823E-1,-1.681612E-1,1.6712794E-1,-1.6011672E-1,1.6393013E-1,-1.5668781E-1,1.138499E-1,-1.8513659E-1,-1.2985562E-1,1.8933588E-1,1.67994E-1,1.4557475E-1,-1.7078763E-1,-1.2952408E-1,3.7342146E-2,-1.6979675E-1,4.34111E-2,1.3158743E-1,2.071575E-1,-1.6835892E-1,-1.09469585E-1,-1.6201268E-1,9.136995E-2,-1.6810463E-1,-1.6816768E-1,3.5037886E-2,1.526349E-1,-1.6776657E-1,-1.4884637E-1,1.6525964E-1,-1.6457832E-1,1.5708393E-1,-1.6789895E-1,1.662387E-1],"categories":[],"categories_nodes":[],"categories_segments":[],"categories_sizes":[],"default_left":[0,0,0,0,0,0,0,0,0,0,0,0,0,0,0,0,0,0,0,0,0,0,0,0,0,0,0,0,0,0,0,0,0,0,0,0,0,0,0,0,0,0,0,0,0,0,0,0,0,0,0,0,0,0,0,0,0,0,0,0,0,0,0,0,0,0,0,0,0,0,0,0,0,0,0,0,0,0,0,0,0],"id":2,"left_children":[1,3,5,7,9,11,13,15,17,19,-1,21,23,25,27,-1,29,31,-1,33,-1,35,37,39,41,43,45,47,49,51,-1,53,55,-1,57,59,61,63,-1,65,67,69,71,73,75,77,-1,79,-1,-1,-1,-1,-1,-1,-1,-1,-1,-1,-1,-1,-1,-1,-1,-1,-1,-1,-1,-1,-1,-1,-1,-1,-1,-1,-1,-1,-1,-1,-1,-1,-1],"loss_changes":[1.2629097E5,7.726883E3,8.8232E4,6.093005E3,1.8728281E3,1.762229E4,3.0911873E4,8.069873E2,2.4063616E3,4.210078E2,0E0,1.3880866E4,1.436493E4,2.3686797E3,1.7315244E3,0E0,3.3756836E2,2.999788E3,0E0,3.221875E1,0E0,3.6774512E2,1.035226E4,4.0910703E3,1.1116726E4,5.230469E2,3.129019E3,5.338955E2,1.7394684E2,1.2675098E2,0E0,1.5053667E3,1.8833066E3,0E0,7.5390625E0,1.7598438E2,8.649002E2,1.1813965E3,0E0,9.279198E2,2.6540234E3,8.1185986E3,1.2650654E3,3.0861016E3,7.187109E1,3.910719E2,0E0,1.547499E3,0E0,0E0,0E0,0E0,0E0,0E0,0E0,0E0,0E0,0E0,0E0,0E0,0E0,0E0,0E0,0E0,0E0,0E0,0E0,0E0,0E0,0E0,0E0,0E0,0E0,0E0,0E0,0E0,0E0,0E0,0E0,0E0,0E0],"parents":[2147483647,0,0,1,1,2,2,3,3,4,4,5,5,6,6,7,7,8,8,9,9,11,11,12,12,13,13,14,14,16,16,17,17,19,19,21,21,22,22,23,23,24,24,25,25,26,26,27,27,28,28,29,29,31,31,32,32,34,34,35,35,36,36,37,37,39,39,40,40,41,41,42,42,43,43,44,44,45,45,47,47],"right_children":[2,4,6,8,10,12,14,16,18,20,-1,22,24,26,28,-1,30,32,-1,34,-1,36,38,40,42,44,46,48,50,52,-1,54,56,-1,58,60,62,64,-1,66,68,70,72,74,76,78,-1,80,-1,-1,-1,-1,-1,-1,-1,-1,-1,-1,-1,-1,-1,-1,-1,-1,-1,-1,-1,-1,-1,-1,-1,-1,-1,-1,-1,-1,-1,-1,-1,-1,-1],"split_conditions":[3.687636E4,1E0,2.0995334E5,9E0,4.07E2,6.724635E7,3.0836E2,1.53E2,3.0836E2,1.553323E4,-1.673441E-1,1.08E2,6.0416E4,1E0,1.4412017E9,-1.6633956E-1,3.0836E2,4.07E2,-1.6803193E-1,1.08E2,-1.6444153E-1,5.874311E7,3.0836E2,2E0,2.723766E8,3.2037484E5,7.5474706E5,6.292532E7,6.684091E5,1.00728E5,-1.6370599E-1,1.243329E8,1.6921819E5,-1.3041583E-1,7.85271E3,2.1E1,6.09966E7,8.219E3,-1.681122E-1,4.07E2,9.2201E4,3.0836E2,7.7482665E6,4.6162E8,3.59441E5,3.09506E5,-1.6793002E-1,6.30396E7,-1.681612E-1,1.6712794E-1,-1.6011672E-1,1.6393013E-1,-1.5668781E-1,1.138499E-1,-1.8513659E-1,-1.2985562E-1,1.8933588E-1,1.67994E-1,1.4557475E-1,-1.7078763E-1,-1.2952408E-1,3.7342146E-2,-1.6979675E-1,4.34111E-2,1.3158743E-1,2.071575E-1,-1.6835892E-1,-1.09469585E-1,-1.6201268E-1,9.136995E-2,-1.6810463E-1,-1.6816768E-1,3.5037886E-2,1.526349E-1,-1.6776657E-1,-1.4884637E-1,1.6525964E-1,-1.6457832E-1,1.5708393E-1,-1.6789895E-1,1.662387E-1],"split_indices":[6,1,3,0,5,9,4,3,4,6,0,3,3,1,2,0,4,5,0,3,0,10,4,0,10,3,6,10,6,5,0,2,3,0,6,0,2,3,0,5,5,4,5,2,6,3,0,2,0,0,0,0,0,0,0,0,0,0,0,0,0,0,0,0,0,0,0,0,0,0,0,0,0,0,0,0,0,0,0,0,0],"split_type":[0,0,0,0,0,0,0,0,0,0,0,0,0,0,0,0,0,0,0,0,0,0,0,0,0,0,0,0,0,0,0,0,0,0,0,0,0,0,0,0,0,0,0,0,0,0,0,0,0,0,0,0,0,0,0,0,0,0,0,0,0,0,0,0,0,0,0,0,0,0,0,0,0,0,0,0,0,0,0,0,0],"sum_hessian":[1.5494614E5,4.335791E4,1.11588234E5,8.621704E3,3.4736207E4,8.4760305E4,2.6827924E4,3.8510535E3,4.770651E3,3.4569082E4,1.6712447E2,1.4756784E4,7.000352E4,2.2376412E4,4.4515127E3,7.648338E1,3.77457E3,3.9220352E3,8.4861584E2,3.4531652E4,3.742966E1,5.072961E3,9.683823E3,5.7553234E4,1.245029E4,2.10049E4,1.3715109E3,4.240528E3,2.1098506E2,3.7434084E3,3.1161512E1,2.318275E3,1.6037601E3,2.9377038E0,3.4528715E4,4.2549375E3,8.180234E2,8.0719956E3,1.6118278E3,4.718224E2,5.708141E4,7.863474E3,4.5868164E3,3.5906604E3,1.741424E4,8.4182416E2,5.2968665E2,6.6980585E2,3.570722E3,1.940486E2,1.6936464E1,3.7317776E3,1.1630953E1,2.136366E3,1.8190894E2,1.3915171E3,2.1224315E2,3.432227E4,2.0644511E2,2.3961553E3,1.8587823E3,3.5714032E2,4.6088306E2,2.0318177E3,6.040178E3,3.936365E2,7.818588E1,1.2249676E4,4.4831734E4,6.3774824E3,1.4859918E3,4.257034E3,3.2978183E2,3.2603345E3,3.3032578E2,6.5639386E0,1.7407676E4,3.8876137E1,8.0294806E2,4.7520593E2,1.9459993E2],"tree_param":{"num_deleted":"0","num_feature":"11","num_nodes":"81","size_leaf_vector":"1"}},{"base_weights":[-8.205805E-5,1.3536315E0,-5.2332944E-1,5.5602074E-1,1.5539342E0,-9.8657465E-1,9.518023E-1,1.4367296E0,-1.4222687E-1,1.5690773E0,-1.5683901E-1,-1.55673325E-2,-1.1723734E0,1.3991293E0,-1.3014368E0,-1.5589856E-1,1.4977729E0,1.6058746E-1,-1.5748376E-1,1.5724998E0,-1.5412512E-1,-1.2806898E0,6.327182E-1,-1.4016013E0,-4.0134478E-1,1.4769437E0,2.0803723E-1,-1.4319041E0,1.31286E0,1.5234331E0,-1.5343909E-1,-1.6151758E-1,5.471496E-1,-1.228681E-1,1.5727787E0,-1.4210763E0,3.4095952E-1,1.0651705E0,-1.5755057E-1,-8.06145E-1,-1.5376686E0,2.7701488E-1,-1.481484E0,1.1464471E0,1.5453357E0,1.324649E0,-1.5738818E-1,-6.625059E-1,-1.5760498E-1,1.5658773E-1,-1.5010026E-1,1.5331958E-1,-1.4692356E-1,1.17444895E-1,-5.1323283E-2,1.5750848E-1,1.440637E-1,-1.19388096E-1,-1.5967064E-1,-1.8900776E-1,1.344377E-1,1.3317743E-1,6.160592E-2,1.4226355E-1,-1.5319102E-1,-1.5546624E-1,-5.2856732E-2,6.412857E-2,-1.5773737E-1,-1.5838365E-1,1.1836927E-2,1.4205341E-1,-1.5723495E-1,1.3945273E-1,1.5721588E-1,1.452421E-1,-1.9425808E-1,-1.5735903E-1,1.556916E-1],"categories":[],"categories_nodes":[],"categories_segments":[],"categories_sizes":[],"default_left":[0,0,0,0,0,0,0,0,0,0,0,0,0,0,0,0,0,0,0,0,0,0,0,0,0,0,0,0,0,0,0,0,0,0,0,0,0,0,0,0,0,0,0,0,0,0,0,0,0,0,0,0,0,0,0,0,0,0,0,0,0,0,0,0,0,0,0,0,0,0,0,0,0,0,0,0,0,0,0],"id":3,"left_children":[1,3,5,7,9,11,13,15,17,19,-1,21,23,25,27,-1,29,31,-1,33,-1,35,37,39,41,43,45,47,49,51,-1,-1,53,-1,55,57,59,61,-1,63,65,67,69,71,73,75,-1,77,-1,-1,-1,-1,-1,-1,-1,-1,-1,-1,-1,-1,-1,-1,-1,-1,-1,-1,-1,-1,-1,-1,-1,-1,-1,-1,-1,-1,-1,-1,-1],"loss_changes":[1.0628709E5,6.682211E3,7.395466E4,5.164545E3,1.5832656E3,1.4858609E4,2.6071271E4,6.81479E2,2.0327233E3,3.566172E2,0E0,1.085076E4,1.2217805E4,1.9998633E3,1.463312E3,0E0,2.8556494E2,2.6563955E3,0E0,2.7898438E1,0E0,1.02095703E3,8.355175E3,4.3162734E3,1.1609805E4,4.5610156E2,2.6375942E3,4.5162012E2,1.4772314E2,1.0772754E2,0E0,0E0,2.1143218E3,0E0,7.8671875E0,1.6271387E2,8.038463E2,8.751113E2,0E0,1.6038779E4,7.43E2,6.5756235E3,1.00105566E3,2.593287E3,6.56875E1,3.429862E2,0E0,1.3081868E3,0E0,0E0,0E0,0E0,0E0,0E0,0E0,0E0,0E0,0E0,0E0,0E0,0E0,0E0,0E0,0E0,0E0,0E0,0E0,0E0,0E0,0E0,0E0,0E0,0E0,0E0,0E0,0E0,0E0,0E0,0E0],"parents":[2147483647,0,0,1,1,2,2,3,3,4,4,5,5,6,6,7,7,8,8,9,9,11,11,12,12,13,13,14,14,16,16,17,17,19,19,21,21,22,22,23,23,24,24,25,25,26,26,27,27,28,28,29,29,32,32,34,34,35,35,36,36,37,37,39,39,40,40,41,41,42,42,43,43,44,44,45,45,47,47],"right_children":[2,4,6,8,10,12,14,16,18,20,-1,22,24,26,28,-1,30,32,-1,34,-1,36,38,40,42,44,46,48,50,52,-1,-1,54,-1,56,58,60,62,-1,64,66,68,70,72,74,76,-1,78,-1,-1,-1,-1,-1,-1,-1,-1,-1,-1,-1,-1,-1,-1,-1,-1,-1,-1,-1,-1,-1,-1,-1,-1,-1,-1,-1,-1,-1,-1,-1],"split_conditions":[3.687636E4,1E0,2.0995334E5,9E0,4.07E2,6.09966E7,3.0836E2,1.53E2,3.0836E2,1.553323E4,-1.5683901E-1,1.08E2,4.3061E4,1E0,1.4412017E9,-1.5589856E-1,3.0836E2,5.84E2,-1.5748376E-1,1.08E2,-1.5412512E-1,5.88586E7,3.0836E2,4.755199E4,2.723766E8,3.2037484E5,7.5474706E5,6.292532E7,6.684091E5,1.00728E5,-1.5343909E-1,-1.6151758E-1,4.867873E7,-1.228681E-1,3.0836E2,4.161439E5,1.2610014E6,3.23968E7,-1.5755057E-1,4E1,2.553186E9,3.0836E2,7.7482665E6,4.6162E8,4.27197E5,1.9E1,-1.5738818E-1,6.30396E7,-1.5760498E-1,1.5658773E-1,-1.5010026E-1,1.5331958E-1,-1.4692356E-1,1.17444895E-1,-5.1323283E-2,1.5750848E-1,1.440637E-1,-1.19388096E-1,-1.5967064E-1,-1.8900776E-1,1.344377E-1,1.3317743E-1,6.160592E-2,1.4226355E-1,-1.5319102E-1,-1.5546624E-1,-5.2856732E-2,6.412857E-2,-1.5773737E-1,-1.5838365E-1,1.1836927E-2,1.4205341E-1,-1.5723495E-1,1.3945273E-1,1.5721588E-1,1.452421E-1,-1.9425808E-1,-1.5735903E-1,1.556916E-1],"split_indices":[6,1,3,0,5,2,4,3,4,6,0,3,3,1,2,0,4,3,0,3,0,2,4,5,10,3,6,10,6,5,0,0,10,0,4,6,5,2,0,3,2,4,5,2,3,0,0,2,0,0,0,0,0,0,0,0,0,0,0,0,0,0,0,0,0,0,0,0,0,0,0,0,0,0,0,0,0,0,0],"split_type":[0,0,0,0,0,0,0,0,0,0,0,0,0,0,0,0,0,0,0,0,0,0,0,0,0,0,0,0,0,0,0,0,0,0,0,0,0,0,0,0,0,0,0,0,0,0,0,0,0,0,0,0,0,0,0,0,0,0,0,0,0,0,0,0,0,0,0,0,0,0,0,0,0,0,0,0,0,0,0],"sum_hessian":[1.5005169E5,4.1830023E4,1.08221664E5,8.396945E3,3.343308E4,8.235844E4,2.5863227E4,3.7128372E3,4.684108E3,3.3272207E4,1.6087003E2,1.3228054E4,6.913038E4,2.1579508E4,4.2837183E3,7.365517E1,3.639182E3,3.867511E3,8.165971E2,3.3236133E4,3.6076866E1,4.481492E3,8.746562E3,5.3287203E4,1.5843179E4,2.025594E4,1.3235686E3,4.0805305E3,2.0318782E2,3.6091367E3,3.0045288E1,6.908326E2,3.1766782E3,2.8711143E0,3.323326E4,4.1245527E3,3.5693945E2,7.3146074E3,1.4319542E3,9.912998E3,4.3374207E4,9.731961E3,6.111218E3,3.47605E3,1.677989E4,8.1384314E2,5.0972546E2,6.447393E2,3.435791E3,1.8683177E2,1.6356058E1,3.5978875E3,1.1249264E1,1.9958619E3,1.1808164E3,3.2652504E4,5.807569E2,1.8016863E3,2.3228665E3,1.1045839E2,2.4648108E2,4.588684E3,2.7259233E3,2.4348284E3,7.478169E3,4.2655324E4,7.188818E2,8.1346646E3,1.5972963E3,5.743764E3,3.674537E2,3.1581484E3,3.1790155E2,2.5418442E3,1.4238046E4,7.837484E2,3.0094688E1,4.5730444E2,1.8743489E2],"tree_param":{"num_deleted":"0","num_feature":"11","num_nodes":"79","size_leaf_vector":"1"}},{"base_weights":[-1.8954897E-4,1.2775897E0,-4.9124512E-1,5.1914716E-1,1.4705322E0,-9.2418647E-1,8.9854544E-1,1.3564135E0,-1.320555E-1,1.4848683E0,-1.4845404E-1,-5.9314173E-2,-1.1094602E0,1.3202609E0,-1.2318838E0,-1.4754094E-1,1.4140501E0,-6.9759685E-1,6.023875E-1,1.4881145E0,-1.4582404E-1,-1.2257806E0,5.3965706E-1,-1.2881767E0,-1.7924626E-1,1.3939624E0,1.9535781E-1,-1.3554373E0,1.2412562E0,1.4383192E0,-1.4516155E-1,4.058564E-2,-1.6478989E0,8.960617E-1,-1.4866364E-1,-1.1635152E-1,1.4883846E0,-1.5514527E-1,-1.0096031E0,9.2623323E-1,-1.4915419E-1,1.2308899E0,-1.3210669E0,4.396564E-1,-1.3280281E0,1.0763195E0,1.4600848E0,1.2418588E0,-1.4898805E-1,-6.268451E-1,-1.4919905E-1,1.4816742E-1,-1.419501E-1,1.4475943E-1,-1.3891302E-1,5.1884916E-2,-1.7314354E-1,-1.5077953E-1,-1.7008959E-1,1.1231835E-1,-1.624506E-1,1.4897643E-1,1.254957E-1,2.1543632E-1,-1.259656E-1,4.3645866E-2,1.2173567E-1,1.4621353E-1,-1.5026625E-1,-9.286468E-2,-1.4353487E-1,9.002894E-2,-1.4913453E-1,-1.4916098E-1,4.5085605E-2,1.3327532E-1,-1.4883898E-1,-1.4840728E-1,1.4613827E-1,1.3690948E-1,-1.9371457E-1,-1.4895971E-1,1.4724241E-1],"categories":[],"categories_nodes":[],"categories_segments":[],"categories_sizes":[],"default_left":[0,0,0,0,0,0,0,0,0,0,0,0,0,0,0,0,0,0,0,0,0,0,0,0,0,0,0,0,0,0,0,0,0,0,0,0,0,0,0,0,0,0,0,0,0,0,0,0,0,0,0,0,0,0,0,0,0,0,0,0,0,0,0,0,0,0,0,0,0,0,0,0,0,0,0,0,0,0,0,0,0,0,0],"id":4,"left_children":[1,3,5,7,9,11,13,15,17,19,-1,21,23,25,27,-1,29,31,33,35,-1,37,39,41,43,45,47,49,51,53,-1,55,57,59,-1,-1,61,-1,63,65,-1,67,69,71,73,75,77,79,-1,81,-1,-1,-1,-1,-1,-1,-1,-1,-1,-1,-1,-1,-1,-1,-1,-1,-1,-1,-1,-1,-1,-1,-1,-1,-1,-1,-1,-1,-1,-1,-1,-1,-1],"loss_changes":[9.037753E4,5.850746E3,6.260756E4,4.4225146E3,1.3526406E3,1.2712633E4,2.2206295E4,5.812803E2,1.8958375E3,3.052578E2,0E0,9.780844E3,1.0862047E4,1.7102188E3,1.2497295E3,0E0,2.4399707E2,1.8089302E3,1.2195789E3,2.4429688E1,0E0,3.3281396E2,7.2642593E3,4.5426875E3,7.488168E3,4.0511328E2,2.2412373E3,3.8613916E2,1.26755035E2,9.2476074E1,0E0,1.2316573E3,5.8061523E0,9.988662E2,0E0,0E0,8.3359375E0,0E0,2.2634563E3,1.1075342E3,0E0,4.4904846E2,2.4249922E3,6.089698E3,1.0737012E3,2.1986116E3,6.339453E1,3.197213E2,0E0,1.1174966E3,0E0,0E0,0E0,0E0,0E0,0E0,0E0,0E0,0E0,0E0,0E0,0E0,0E0,0E0,0E0,0E0,0E0,0E0,0E0,0E0,0E0,0E0,0E0,0E0,0E0,0E0,0E0,0E0,0E0,0E0,0E0,0E0,0E0],"parents":[2147483647,0,0,1,1,2,2,3,3,4,4,5,5,6,6,7,7,8,8,9,9,11,11,12,12,13,13,14,14,16,16,17,17,18,18,19,19,21,21,22,22,23,23,24,24,25,25,26,26,27,27,28,28,29,29,31,31,32,32,33,33,36,36,38,38,39,39,41,41,42,42,43,43,44,44,45,45,46,46,47,47,49,49],"right_children":[2,4,6,8,10,12,14,16,18,20,-1,22,24,26,28,-1,30,32,34,36,-1,38,40,42,44,46,48,50,52,54,-1,56,58,60,-1,-1,62,-1,64,66,-1,68,70,72,74,76,78,80,-1,82,-1,-1,-1,-1,-1,-1,-1,-1,-1,-1,-1,-1,-1,-1,-1,-1,-1,-1,-1,-1,-1,-1,-1,-1,-1,-1,-1,-1,-1,-1,-1,-1,-1],"split_conditions":[3.687636E4,1E0,2.0995334E5,9E0,4.07E2,6.724635E7,3.0836E2,1.53E2,2.5E1,1.553323E4,-1.4845404E-1,1.08E2,7.0647E4,1E0,1.4412017E9,-1.4754094E-1,3.0836E2,4.6683576E7,3.0836E2,1.08E2,-1.4582404E-1,3.8810422E5,3.0836E2,6E0,2.723766E8,3.2037484E5,7.5474706E5,6.292532E7,6.684091E5,1.00728E5,-1.4516155E-1,1.7E1,5.84E2,2.099771E4,-1.4866364E-1,-1.1635152E-1,7.85271E3,-1.5514527E-1,3.9467462E5,1.1277E4,-1.4915419E-1,1E0,9.2201E4,3.0836E2,7.7482665E6,4.6162E8,3.59441E5,4.07E2,-1.4898805E-1,6.30396E7,-1.4919905E-1,1.4816742E-1,-1.419501E-1,1.4475943E-1,-1.3891302E-1,5.1884916E-2,-1.7314354E-1,-1.5077953E-1,-1.7008959E-1,1.1231835E-1,-1.624506E-1,1.4897643E-1,1.254957E-1,2.1543632E-1,-1.259656E-1,4.3645866E-2,1.2173567E-1,1.4621353E-1,-1.5026625E-1,-9.286468E-2,-1.4353487E-1,9.002894E-2,-1.4913453E-1,-1.4916098E-1,4.5085605E-2,1.3327532E-1,-1.4883898E-1,-1.4840728E-1,1.4613827E-1,1.3690948E-1,-1.9371457E-1,-1.4895971E-1,1.4724241E-1],"split_indices":[6,1,3,0,5,9,4,3,0,6,0,3,3,1,2,0,4,10,4,3,0,5,4,0,10,3,6,10,6,5,0,0,3,5,0,0,6,0,5,3,0,1,5,4,5,2,6,5,0,2,0,0,0,0,0,0,0,0,0,0,0,0,0,0,0,0,0,0,0,0,0,0,0,0,0,0,0,0,0,0,0,0,0],"split_type":[0,0,0,0,0,0,0,0,0,0,0,0,0,0,0,0,0,0,0,0,0,0,0,0,0,0,0,0,0,0,0,0,0,0,0,0,0,0,0,0,0,0,0,0,0,0,0,0,0,0,0,0,0,0,0,0,0,0,0,0,0,0,0,0,0,0,0,0,0,0,0,0,0,0,0,0,0,0,0,0,0,0,0],"sum_hessian":[1.4403498E5,3.9985867E4,1.0404911E5,8.1099526E3,3.1875916E4,7.933527E4,2.4713836E4,3.547617E3,4.5623354E3,3.1722518E4,1.5339944E2,1.3997088E4,6.5338188E4,2.063045E4,4.0833875E3,7.027437E1,3.4773425E3,2.5775789E3,1.9847567E3,3.1688059E4,3.4457306E1,4.7485254E3,9.2485625E3,5.480789E4,1.0530296E4,1.936167E4,1.2687792E3,3.8895256E3,1.9386163E2,3.4486343E3,2.8708147E1,1.4512352E3,1.1263438E3,1.7406305E3,2.4412616E2,2.7889175E0,3.1685271E4,1.892018E3,2.8565076E3,7.770274E3,1.4782885E3,7.0590735E2,5.4101984E4,6.8438237E3,3.686472E3,3.3389756E3,1.6022693E4,7.828853E2,4.8589383E2,6.147989E2,3.2747268E3,1.782029E2,1.5658735E1,3.437845E3,1.0789356E1,1.1433544E3,3.0788092E2,3.1721054E2,8.091332E2,1.5972599E3,1.4337056E2,3.1493756E4,1.915142E2,2.086613E2,2.6478464E3,2.8977358E3,4.872538E3,6.512775E2,5.4629852E1,1.2204243E4,4.1897742E4,5.5261226E3,1.3177014E3,3.3761692E3,3.1030267E2,3.0359092E3,3.030664E2,6.556441E0,1.6016138E4,7.533045E2,2.9580822E1,4.359314E2,1.7886746E2],"tree_param":{"num_deleted":"0","num_feature":"11","num_nodes":"83","size_leaf_vector":"1"}},{"base_weights":[-1.7199412E-4,1.2510172E0,-4.4988915E-1,1.314997E0,-5.9352946E-1,-8.428517E-1,8.508673E-1,7.3550737E-1,1.4137101E0,1.6215551E0,-1.0332612E0,5.0527863E-2,-1.0367293E0,1.2549179E0,-1.1778775E0,9.665513E-1,-1.4430065E-1,1.4184501E0,-1.3981126E-1,1.7071864E-1,-1.24980666E-1,-1.5294694E0,9.924851E-1,-1.1295006E0,5.662818E-1,-1.2484634E0,-3.4531903E-1,1.3252833E0,1.8464035E-1,-1.2947661E0,1.1827319E0,1.0987173E0,-1.6942259E0,1.4194924E0,-1.3128649E-1,-1.4430714E-1,-1.6237018E0,1.4108342E-1,-1.3840005E-1,-1.2728153E0,4.4028187E-1,9.122121E-1,-1.4249681E-1,-6.889322E-1,-1.3822105E0,2.8948966E-1,-1.280366E0,1.1069638E0,1.4185287E0,1.1713173E0,-1.4216201E-1,-6.394385E-1,-1.4237238E-1,1.411765E-1,-1.3759862E-1,-1.5140145E-1,1.1657051E-1,-2.941345E-1,-1.6184917E-1,-1.1064736E-1,1.4197563E-1,-1.6823432E-1,-1.4209491E-1,-1.4515103E-1,-1.0474139E-1,1.3253206E-1,-1.719631E-1,2.5876198E-2,1.1149414E-1,1.3693689E-1,-1.3949575E-1,-1.4002816E-1,-3.5584603E-2,6.1490577E-2,-1.4252621E-1,-1.3671668E-1,4.315321E-3,1.22451745E-1,-2.0403953E-1,-1.4091638E-1,1.4189845E-1,-1.5402028E-1,1.3126007E-1,-1.4226912E-1,1.4033352E-1],"categories":[],"categories_nodes":[],"categories_segments":[],"categories_sizes":[],"default_left":[0,0,0,0,0,0,0,0,0,0,0,0,0,0,0,0,0,0,0,0,0,0,0,0,0,0,0,0,0,0,0,0,0,0,0,0,0,0,0,0,0,0,0,0,0,0,0,0,0,0,0,0,0,0,0,0,0,0,0,0,0,0,0,0,0,0,0,0,0,0,0,0,0,0,0,0,0,0,0,0,0,0,0,0,0],"id":5,"left_children":[1,3,5,7,9,11,13,15,17,19,21,23,25,27,29,31,-1,33,-1,-1,-1,35,37,39,41,43,45,47,49,51,53,55,57,59,-1,-1,61,-1,-1,63,65,67,-1,69,71,73,75,77,79,81,-1,83,-1,-1,-1,-1,-1,-1,-1,-1,-1,-1,-1,-1,-1,-1,-1,-1,-1,-1,-1,-1,-1,-1,-1,-1,-1,-1,-1,-1,-1,-1,-1,-1,-1],"loss_changes":[7.7436695E4,4.29491E3,5.17464E4,2.0106406E3,1.1904808E3,1.3466348E4,1.925496E4,2.5788223E3,4.0245703E2,5.193512E1,1.0257487E3,8.438743E3,9.351789E3,1.4748965E3,1.0780693E3,1.6301787E3,0E0,8.725E1,0E0,0E0,0E0,4.3236084E0,2.0187492E2,9.492993E2,6.647547E3,3.6589844E3,8.891115E3,3.7257812E2,1.9185519E3,3.1329004E2,1.10121796E2,7.739243E2,1.5971741E1,2.1570312E1,0E0,0E0,2.1713257E0,0E0,0E0,1.541377E2,6.78109E2,1.0887837E3,0E0,1.3715828E4,7.315703E2,4.9795728E3,6.959053E2,2.039269E3,1.8595703E1,2.892655E2,0E0,9.8302954E2,0E0,0E0,0E0,0E0,0E0,0E0,0E0,0E0,0E0,0E0,0E0,0E0,0E0,0E0,0E0,0E0,0E0,0E0,0E0,0E0,0E0,0E0,0E0,0E0,0E0,0E0,0E0,0E0,0E0,0E0,0E0,0E0,0E0],"parents":[2147483647,0,0,1,1,2,2,3,3,4,4,5,5,6,6,7,7,8,8,9,9,10,10,11,11,12,12,13,13,14,14,15,15,17,17,21,21,22,22,23,23,24,24,25,25,26,26,27,27,28,28,29,29,30,30,31,31,32,32,33,33,36,36,39,39,40,40,41,41,43,43,44,44,45,45,46,46,47,47,48,48,49,49,51,51],"right_children":[2,4,6,8,10,12,14,16,18,20,22,24,26,28,30,32,-1,34,-1,-1,-1,36,38,40,42,44,46,48,50,52,54,56,58,60,-1,-1,62,-1,-1,64,66,68,-1,70,72,74,76,78,80,82,-1,84,-1,-1,-1,-1,-1,-1,-1,-1,-1,-1,-1,-1,-1,-1,-1,-1,-1,-1,-1,-1,-1,-1,-1,-1,-1,-1,-1,-1,-1,-1,-1,-1,-1],"split_conditions":[2.301303E4,3.218259E4,2.0995334E5,1E0,2.182332E6,6.09966E7,3.0836E2,3.0836E2,4.07E2,1E1,4.27197E5,1.08E2,4.3061E4,1E0,1.4412017E9,2.578858E8,-1.4430065E-1,1.553323E4,-1.3981126E-1,1.7071864E-1,-1.24980666E-1,5.37E2,3.0836E2,5.88586E7,3.0836E2,4.755199E4,2.555401E8,4.27197E5,7.5474706E5,6.292532E7,1.5238286E9,1.53E2,9E0,1.08E2,-1.3128649E-1,-1.4430714E-1,3.0836E2,1.4108342E-1,-1.3840005E-1,2.1E1,1.6E1,8.219E3,-1.4249681E-1,4E1,2.553186E9,3.0836E2,7.7482665E6,6.108931E8,4.557588E5,3.09506E5,-1.4216201E-1,6.30396E7,-1.4237238E-1,1.411765E-1,-1.3759862E-1,-1.5140145E-1,1.1657051E-1,-2.941345E-1,-1.6184917E-1,-1.1064736E-1,1.4197563E-1,-1.6823432E-1,-1.4209491E-1,-1.4515103E-1,-1.0474139E-1,1.3253206E-1,-1.719631E-1,2.5876198E-2,1.1149414E-1,1.3693689E-1,-1.3949575E-1,-1.4002816E-1,-3.5584603E-2,6.1490577E-2,-1.4252621E-1,-1.3671668E-1,4.315321E-3,1.22451745E-1,-2.0403953E-1,-1.4091638E-1,1.4189845E-1,-1.5402028E-1,1.3126007E-1,-1.4226912E-1,1.4033352E-1],"split_indices":[6,5,3,1,10,2,4,4,5,0,3,3,3,1,2,9,0,6,0,0,0,3,4,2,4,5,9,3,6,10,2,3,0,3,0,0,4,0,0,0,0,3,0,3,2,4,5,10,6,3,0,2,0,0,0,0,0,0,0,0,0,0,0,0,0,0,0,0,0,0,0,0,0,0,0,0,0,0,0,0,0,0,0,0,0],"split_type":[0,0,0,0,0,0,0,0,0,0,0,0,0,0,0,0,0,0,0,0,0,0,0,0,0,0,0,0,0,0,0,0,0,0,0,0,0,0,0,0,0,0,0,0,0,0,0,0,0,0,0,0,0,0,0,0,0,0,0,0,0,0,0,0,0,0,0,0,0,0,0,0,0,0,0,0,0,0,0,0,0,0,0,0,0],"sum_hessian":[1.3761889E5,3.638576E4,1.0123313E5,3.5166277E4,1.2194855E3,7.774613E4,2.3486998E4,5.1197256E3,3.0046553E4,2.0154489E2,1.0179406E3,1.3863678E4,6.3882457E4,1.9586479E4,3.900518E3,4.629316E3,4.904093E2,2.9996482E4,5.0070618E1,1.9610207E2,5.44282E0,8.178521E2,2.0008853E2,4.216126E3,9.647552E3,4.890518E4,1.4977279E4,1.837798E4,1.2084988E3,3.7169219E3,1.8359636E2,4.4108096E3,2.1850659E2,2.9985521E4,1.0961139E1,4.3517337E2,3.826787E2,1.7048349E2,2.9605045E1,3.8635857E3,3.525403E2,8.220062E3,1.42749E3,9.435967E3,3.946921E4,8.921269E3,6.0560103E3,5.5040264E3,1.2873954E4,7.488028E2,4.59696E2,6.1214264E2,3.104779E3,1.6892407E2,1.4672293E1,1.0972152E2,4.301088E3,1.0343431E1,2.0816316E2,2.6957545E0,2.9982824E4,2.911679E2,9.15108E1,2.15204E3,1.7115457E3,2.5034583E2,1.0219448E2,1.9469154E3,6.2731465E3,2.4097615E3,7.026205E3,3.878595E4,6.8326337E2,7.4988247E3,1.4224441E3,5.6832505E3,3.7275992E2,5.306442E3,1.9758452E2,1.5766541E0,1.2872377E4,3.6593624E1,7.1220917E2,4.427025E2,1.6944012E2],"tree_param":{"num_deleted":"0","num_feature":"11","num_nodes":"85","size_leaf_vector":"1"}},{"base_weights":[-3.3303947E-4,1.2156839E0,-4.204079E-1,1.2756357E0,-5.291768E-1,-7.852187E-1,8.109394E-1,7.178864E-1,1.3586166E0,1.5163205E0,-9.6271616E-1,7.378751E-2,-9.835221E-1,1.1982514E0,-1.1326212E0,9.1930085E-1,-1.3817632E-1,1.3627774E0,-1.3393001E-1,1.5933655E-1,-1.1871389E-1,-1.4563735E0,9.7018886E-1,-1.0696181E0,5.377812E-1,-1.1909152E0,-3.228939E-1,1.2655292E0,1.7551401E-1,-1.2443322E0,1.1336396E0,1.0578538E0,-1.5862797E0,-1.0559266E-1,1.3630375E0,-1.383017E-1,-1.5337031E0,1.3557045E-1,-1.3257198E-1,-1.2085662E0,3.961482E-1,8.546323E-1,-1.3695636E-1,-6.5185547E-1,-1.321953E0,2.631086E-1,-1.2136621E0,9.5074284E-1,1.332447E0,1.1130579E0,-1.3652717E-1,-6.357774E-1,-1.367415E-1,1.356409E-1,-1.297683E-1,-1.4354381E-1,1.11647606E-1,-2.455045E-1,-1.5260457E-1,1.3657391E-1,1.21003725E-1,-1.5805647E-1,-1.3617514E-1,-1.3914704E-1,-9.8127745E-2,-1.5977068E-1,1.2533052E-1,4.0140107E-2,1.1588532E-1,1.2600319E-1,-1.3247564E-1,-1.3403627E-1,-3.2409936E-2,5.5755068E-2,-1.3686208E-1,-1.3000901E-1,3.8856864E-3,1.1950517E-1,-1.4213936E-1,1.1758824E-1,1.3608871E-1,1.2360527E-1,-1.8356483E-1,-1.367283E-1,1.3458739E-1],"categories":[],"categories_nodes":[],"categories_segments":[],"categories_sizes":[],"default_left":[0,0,0,0,0,0,0,0,0,0,0,0,0,0,0,0,0,0,0,0,0,0,0,0,0,0,0,0,0,0,0,0,0,0,0,0,0,0,0,0,0,0,0,0,0,0,0,0,0,0,0,0,0,0,0,0,0,0,0,0,0,0,0,0,0,0,0,0,0,0,0,0,0,0,0,0,0,0,0,0,0,0,0,0,0],"id":6,"left_children":[1,3,5,7,9,11,13,15,17,19,21,23,25,27,29,31,-1,33,-1,-1,-1,35,37,39,41,43,45,47,49,51,53,55,57,-1,59,-1,61,-1,-1,63,65,67,-1,69,71,73,75,77,79,81,-1,83,-1,-1,-1,-1,-1,-1,-1,-1,-1,-1,-1,-1,-1,-1,-1,-1,-1,-1,-1,-1,-1,-1,-1,-1,-1,-1,-1,-1,-1,-1,-1,-1,-1],"loss_changes":[6.677631E4,3.5117344E3,4.364582E4,1.5008633E3,9.908054E2,1.2768051E4,1.671798E4,1.7794143E3,3.1890234E2,4.261029E1,8.803567E2,7.4593027E3,8.342996E3,1.2739121E3,9.357368E2,1.3337871E3,0E0,1.9179688E1,0E0,0E0,0E0,2.043335E0,1.681939E2,8.270757E2,6.0454194E3,3.2728984E3,7.595873E3,3.647207E2,1.6542208E3,2.626128E2,9.5946686E1,5.33156E2,6.796234E0,0E0,1E1,0E0,6.5356445E-1,0E0,0E0,1.5276074E2,6.038895E2,1.1821787E3,0E0,1.1663857E4,6.844375E2,4.2180737E3,6.251279E2,1.7689551E3,6.2191406E1,2.6043463E2,0E0,8.623777E2,0E0,0E0,0E0,0E0,0E0,0E0,0E0,0E0,0E0,0E0,0E0,0E0,0E0,0E0,0E0,0E0,0E0,0E0,0E0,0E0,0E0,0E0,0E0,0E0,0E0,0E0,0E0,0E0,0E0,0E0,0E0,0E0,0E0],"parents":[2147483647,0,0,1,1,2,2,3,3,4,4,5,5,6,6,7,7,8,8,9,9,10,10,11,11,12,12,13,13,14,14,15,15,17,17,21,21,22,22,23,23,24,24,25,25,26,26,27,27,28,28,29,29,30,30,31,31,32,32,34,34,36,36,39,39,40,40,41,41,43,43,44,44,45,45,46,46,47,47,48,48,49,49,51,51],"right_children":[2,4,6,8,10,12,14,16,18,20,22,24,26,28,30,32,-1,34,-1,-1,-1,36,38,40,42,44,46,48,50,52,54,56,58,-1,60,-1,62,-1,-1,64,66,68,-1,70,72,74,76,78,80,82,-1,84,-1,-1,-1,-1,-1,-1,-1,-1,-1,-1,-1,-1,-1,-1,-1,-1,-1,-1,-1,-1,-1,-1,-1,-1,-1,-1,-1,-1,-1,-1,-1,-1,-1],"split_conditions":[1.553323E4,3.218259E4,2.0995334E5,1E0,2.182332E6,6.09966E7,3.0836E2,3.0836E2,4.07E2,1E1,4.27197E5,1.08E2,4.3061E4,1E0,1.4412017E9,2.578858E8,-1.3817632E-1,1.08E2,-1.3393001E-1,1.5933655E-1,-1.1871389E-1,5.37E2,3.0836E2,5.874311E7,3.0836E2,4.755199E4,2.555401E8,3.2037484E5,7.5474706E5,6.292532E7,6.684091E5,1.53E2,9E0,-1.0559266E-1,3.0836E2,-1.383017E-1,3.0836E2,1.3557045E-1,-1.3257198E-1,2.1E1,1.2610014E6,1.2411E4,-1.3695636E-1,4E1,2.553186E9,3.0836E2,7.7482665E6,4.6162E8,4.27197E5,1.9E1,-1.3652717E-1,6.30396E7,-1.367415E-1,1.356409E-1,-1.297683E-1,-1.4354381E-1,1.11647606E-1,-2.455045E-1,-1.5260457E-1,1.3657391E-1,1.21003725E-1,-1.5805647E-1,-1.3617514E-1,-1.3914704E-1,-9.8127745E-2,-1.5977068E-1,1.2533052E-1,4.0140107E-2,1.1588532E-1,1.2600319E-1,-1.3247564E-1,-1.3403627E-1,-3.2409936E-2,5.5755068E-2,-1.3686208E-1,-1.3000901E-1,3.8856864E-3,1.1950517E-1,-1.4213936E-1,1.1758824E-1,1.3608871E-1,1.2360527E-1,-1.8356483E-1,-1.367283E-1,1.3458739E-1],"split_indices":[6,5,3,1,10,2,4,4,5,0,3,3,3,1,2,9,0,3,0,0,0,3,4,10,4,5,9,3,6,10,6,3,0,0,4,0,4,0,0,0,5,3,0,3,2,4,5,2,3,0,0,2,0,0,0,0,0,0,0,0,0,0,0,0,0,0,0,0,0,0,0,0,0,0,0,0,0,0,0,0,0,0,0,0,0],"split_type":[0,0,0,0,0,0,0,0,0,0,0,0,0,0,0,0,0,0,0,0,0,0,0,0,0,0,0,0,0,0,0,0,0,0,0,0,0,0,0,0,0,0,0,0,0,0,0,0,0,0,0,0,0,0,0,0,0,0,0,0,0,0,0,0,0,0,0,0,0,0,0,0,0,0,0,0,0,0,0,0,0,0,0,0,0],"sum_hessian":[1.3072224E5,3.356311E4,9.7159125E4,3.2448479E4,1.114631E3,7.495315E4,2.2205979E4,4.203646E3,2.8244834E4,1.9449236E2,9.201387E2,1.4057935E4,6.0895215E4,1.8516418E4,3.689561E3,3.8362095E3,3.6743637E2,2.8201834E4,4.2998985E1,1.8950241E2,4.9899535E0,7.33143E2,1.8699565E2,4.057602E3,1.0000332E4,4.6345133E4,1.4550081E4,1.7373328E4,1.1430908E3,3.5166646E3,1.7289645E2,3.635739E3,2.0047041E2,2.595358E0,2.8199238E4,3.8592838E2,3.4721463E2,1.6046141E2,2.6534237E1,3.706425E3,3.511771E2,8.576193E3,1.4241389E3,9.063976E3,3.728116E4,8.776838E3,5.7732427E3,3.0484456E3,1.4324882E4,7.1083594E2,4.322549E2,5.9264246E2,2.9240222E3,1.587895E2,1.410694E1,8.2980095E1,3.552759E3,1.0420163E1,1.9005026E2,2.7702158E4,4.9708112E2,2.6641684E2,8.079778E1,2.0508994E3,1.6555255E3,1.0532168E2,2.4585542E2,3.445449E3,5.130744E3,2.3594082E3,6.7045674E3,3.6605477E4,6.756837E2,7.4357344E3,1.3411039E3,5.400549E3,3.726938E2,2.764249E3,2.841967E2,2.2086157E3,1.2116266E4,6.829307E2,2.7905247E1,4.3308408E2,1.5955836E2],"tree_param":{"num_deleted":"0","num_feature":"11","num_nodes":"85","size_leaf_vector":"1"}},{"base_weights":[-4.828466E-4,1.1693492E0,-4.0054756E-1,4.521999E-1,1.3051306E0,-7.458499E-1,7.795585E-1,1.1931247E0,-1.5030465E-1,1.3152896E0,-1.3078547E-1,-1.0182775E-2,-9.6015847E-1,1.1510526E0,-1.0934637E0,-1.2947713E-1,1.2471836E0,-8.5524124E-1,8.1645286E-1,-1.0106392E-1,1.3155473E0,-1.08908E0,4.569241E-1,-1.1369352E0,-1.03962764E-1,1.2160101E0,1.6744374E-1,-1.2013857E0,1.0925992E0,1.2684672E0,-1.2588488E-1,3.9132875E-1,-1.5209457E0,1.0156531E0,-1.3072018E-1,1.3172292E0,1.0380352E0,-1.3794507E-1,-8.9112604E-1,7.4645346E-1,-1.3229643E-1,1.2390282E0,-1.1712034E0,4.1980392E-1,-1.1550758E0,9.959625E-1,1.312515E0,1.0593357E0,-1.3181525E-1,-6.133893E-1,-1.320383E-1,1.3072811E-1,-1.2734011E-1,1.3193202E-1,6.9420874E-2,1.2618993E-1,-1.4931308E-1,-1.6361539E-1,-1.3877286E-1,1.1980241E-1,-1.4237805E-1,1.3188349E-1,1.2252287E-1,-3.4522405E-1,1.3363111E-1,2.0907739E-1,-1.12783186E-1,3.850562E-2,1.2614004E-1,1.955031E-1,3.8696315E-2,-7.568174E-2,-1.2801854E-1,7.5098805E-2,-1.3196194E-1,-1.3247605E-1,3.9947618E-2,1.1079677E-1,-1.9739154E-1,-1.4061318E-1,1.3130169E-1,1.1850858E-1,-1.8442099E-1,-1.3198648E-1,1.2973869E-1],"categories":[],"categories_nodes":[],"categories_segments":[],"categories_sizes":[],"default_left":[0,0,0,0,0,0,0,0,0,0,0,0,0,0,0,0,0,0,0,0,0,0,0,0,0,0,0,0,0,0,0,0,0,0,0,0,0,0,0,0,0,0,0,0,0,0,0,0,0,0,0,0,0,0,0,0,0,0,0,0,0,0,0,0,0,0,0,0,0,0,0,0,0,0,0,0,0,0,0,0,0,0,0,0,0],"id":7,"left_children":[1,3,5,7,9,11,13,15,17,19,-1,21,23,25,27,-1,29,31,33,-1,35,37,39,41,43,45,47,49,51,53,-1,55,57,59,-1,61,63,-1,65,67,-1,69,71,73,75,77,79,81,-1,83,-1,-1,-1,-1,-1,-1,-1,-1,-1,-1,-1,-1,-1,-1,-1,-1,-1,-1,-1,-1,-1,-1,-1,-1,-1,-1,-1,-1,-1,-1,-1,-1,-1,-1,-1],"loss_changes":[5.787106E4,3.0678477E3,3.7548047E4,2.2402417E3,7.0501953E2,1.123877E4,1.4514971E4,3.0430127E2,1.887351E3,1.715625E1,0E0,8.1054214E3,8.355246E3,1.111957E3,8.1592334E2,0E0,1.19110596E2,1.3295665E3,4.9538995E2,0E0,1.0953125E1,2.7808984E2,5.7850703E3,3.726914E3,5.2021343E3,3.454336E2,1.4317052E3,2.2945264E2,8.444075E1,6.2896973E1,0E0,9.178065E2,1.3755127E1,4.7697876E2,0E0,2.2539062E0,2.2383418E2,0E0,2.043884E3,1.7961909E3,0E0,3.9642963E2,2.0360508E3,3.6341228E3,8.294795E2,1.6594077E3,1.7326172E1,2.4867194E2,0E0,7.519562E2,0E0,0E0,0E0,0E0,0E0,0E0,0E0,0E0,0E0,0E0,0E0,0E0,0E0,0E0,0E0,0E0,0E0,0E0,0E0,0E0,0E0,0E0,0E0,0E0,0E0,0E0,0E0,0E0,0E0,0E0,0E0,0E0,0E0,0E0,0E0],"parents":[2147483647,0,0,1,1,2,2,3,3,4,4,5,5,6,6,7,7,8,8,9,9,11,11,12,12,13,13,14,14,16,16,17,17,18,18,20,20,21,21,22,22,23,23,24,24,25,25,26,26,27,27,28,28,29,29,31,31,32,32,33,33,35,35,36,36,38,38,39,39,41,41,42,42,43,43,44,44,45,45,46,46,47,47,49,49],"right_children":[2,4,6,8,10,12,14,16,18,20,-1,22,24,26,28,-1,30,32,34,-1,36,38,40,42,44,46,48,50,52,54,-1,56,58,60,-1,62,64,-1,66,68,-1,70,72,74,76,78,80,82,-1,84,-1,-1,-1,-1,-1,-1,-1,-1,-1,-1,-1,-1,-1,-1,-1,-1,-1,-1,-1,-1,-1,-1,-1,-1,-1,-1,-1,-1,-1,-1,-1,-1,-1,-1,-1],"split_conditions":[1.553323E4,1E0,2.0995334E5,9E0,4.07E2,7.74927E7,3.0836E2,1.53E2,3.5E1,1.08E2,-1.3078547E-1,1.08E2,7.0647E4,1E0,1.4412017E9,-1.2947713E-1,3.0836E2,1.5116915E7,3.0836E2,-1.0106392E-1,7.85271E3,3.8810422E5,3.0836E2,6E0,2.723766E8,4.27197E5,7.5474706E5,6.292532E7,1.5238286E9,1.283568E8,-1.2588488E-1,1.1E1,3.218259E4,2.099771E4,-1.3072018E-1,3.0836E2,5.888426E8,-1.3794507E-1,3.9467462E5,2.1301E4,-1.3229643E-1,4.07E2,4.755199E4,3.0836E2,7.7482665E6,6.108931E8,4.557588E5,4.07E2,-1.3181525E-1,6.30396E7,-1.320383E-1,1.3072811E-1,-1.2734011E-1,1.3193202E-1,6.9420874E-2,1.2618993E-1,-1.4931308E-1,-1.6361539E-1,-1.3877286E-1,1.1980241E-1,-1.4237805E-1,1.3188349E-1,1.2252287E-1,-3.4522405E-1,1.3363111E-1,2.0907739E-1,-1.12783186E-1,3.850562E-2,1.2614004E-1,1.955031E-1,3.8696315E-2,-7.568174E-2,-1.2801854E-1,7.5098805E-2,-1.3196194E-1,-1.3247605E-1,3.9947618E-2,1.1079677E-1,-1.9739154E-1,-1.4061318E-1,1.3130169E-1,1.1850858E-1,-1.8442099E-1,-1.3198648E-1,1.2973869E-1],"split_indices":[6,1,3,0,5,2,4,3,0,3,0,3,3,1,2,0,4,10,4,0,6,5,4,0,10,3,6,10,2,2,0,0,5,5,0,4,2,0,5,3,0,5,5,4,5,10,6,5,0,2,0,0,0,0,0,0,0,0,0,0,0,0,0,0,0,0,0,0,0,0,0,0,0,0,0,0,0,0,0,0,0,0,0,0,0],"split_type":[0,0,0,0,0,0,0,0,0,0,0,0,0,0,0,0,0,0,0,0,0,0,0,0,0,0,0,0,0,0,0,0,0,0,0,0,0,0,0,0,0,0,0,0,0,0,0,0,0,0,0,0,0,0,0,0,0,0,0,0,0,0,0,0,0,0,0,0,0,0,0,0,0,0,0,0,0,0,0,0,0,0,0,0,0],"sum_hessian":[1.2365186E5,3.1510338E4,9.214152E4,5.016943E3,2.6493395E4,7.1284E4,2.085753E4,2.2495718E3,2.7673713E3,2.6391285E4,1.0211017E2,1.6081462E4,5.5202535E4,1.7405682E4,3.4518467E3,4.7352848E1,2.2022188E3,1.6004653E3,1.166906E3,2.4907026E0,2.6388795E4,4.8584214E3,1.1223041E4,4.575523E4,9.447302E3,1.6327196E4,1.0784855E3,3.2898816E3,1.6196516E2,2.1841626E3,1.8056131E1,5.5730035E2,1.043165E3,1.067313E3,9.959294E1,2.6226115E4,1.6267815E2,1.967057E3,2.8913645E3,9.65334E3,1.5697006E3,6.5003827E2,4.5105195E4,6.3057603E3,3.1415417E3,4.980993E3,1.1346203E4,6.7408124E2,4.044042E2,5.547704E2,2.735111E3,1.4890186E2,1.306331E1,2.0052886E3,1.7887415E2,3.8142325E2,1.758771E2,5.5334314E2,4.8982187E2,9.935449E2,7.376809E1,2.576314E4,4.6297556E2,9.474478E0,1.5320367E2,2.1206343E2,2.679301E3,5.6734077E3,3.9799324E3,3.5251785E2,2.9752042E2,9.394E3,3.5711195E4,5.29766E3,1.0080999E3,2.8325115E3,3.0903027E2,4.8005723E3,1.8042076E2,1.5767962E0,1.1344627E4,6.466665E2,2.7414732E1,4.0524683E2,1.4952357E2],"tree_param":{"num_deleted":"0","num_feature":"11","num_nodes":"85","size_leaf_vector":"1"}},{"base_weights":[-5.037512E-4,1.1307052E0,-3.8152185E-1,4.310375E-1,1.2652547E0,-7.418024E-1,6.4638686E-1,1.1491369E0,-1.4312854E-1,1.2751093E0,-1.268062E-1,-2.9749757E-1,-1.151665E0,1.0153979E0,-1.1016686E0,-1.2545988E-1,1.2011386E0,-8.149538E-1,7.6506937E-1,-9.6966185E-2,1.2753663E0,-9.567942E-1,2.1217181E-1,-7.6552254E-1,-1.2686787E0,1.0993505E0,-1.4369424E-1,-1.1877515E0,1.0571244E0,1.221673E0,-1.2176301E-1,3.6933747E-1,-1.4536992E0,9.494226E-1,-1.2674217E-1,1.2771153E0,9.913343E-1,1.142572E0,-1.094587E0,3.751524E-1,-1.282775E-1,1.2481532E0,-1.3942908E0,-1.2960491E0,-2.8524953E-1,7.074304E-1,1.2308574E0,8.220394E-1,-1.3425745E0,-7.607444E-1,-1.2808959E-1,1.2682721E-1,-1.20901756E-1,1.2745132E-1,6.461015E-2,1.1846631E-1,-1.4360112E-1,-1.551621E-1,-1.3381821E-1,1.1181934E-1,-1.366881E-1,1.278836E-1,1.17932856E-1,-2.7427828E-1,1.2928382E-1,-1.2995026E-1,1.462134E-1,-1.2361827E-1,-4.6625525E-2,1.1237659E-1,1.0419183E-2,-2.405771E-1,1.3136996E-1,-1.6321653E-1,-1.3377772E-1,-1.3179855E-1,-9.226983E-2,1.5494366E-1,-1.4358215E-1,1.0815164E-1,-1.0305679E-1,-1.4605822E-1,1.2339991E-1,-1.3681911E-1,1.1139657E-1,-2.2417636E-1,-1.330349E-1,-1.2804763E-1,1.2497824E-1],"categories":[],"categories_nodes":[],"categories_segments":[],"categories_sizes":[],"default_left":[0,0,0,0,0,0,0,0,0,0,0,0,0,0,0,0,0,0,0,0,0,0,0,0,0,0,0,0,0,0,0,0,0,0,0,0,0,0,0,0,0,0,0,0,0,0,0,0,0,0,0,0,0,0,0,0,0,0,0,0,0,0,0,0,0,0,0,0,0,0,0,0,0,0,0,0,0,0,0,0,0,0,0,0,0,0,0,0,0],"id":8,"left_children":[1,3,5,7,9,11,13,15,17,19,-1,21,23,25,27,-1,29,31,33,-1,35,37,39,41,43,45,47,49,51,53,-1,55,57,59,-1,61,63,65,67,69,-1,71,73,75,77,79,81,83,85,87,-1,-1,-1,-1,-1,-1,-1,-1,-1,-1,-1,-1,-1,-1,-1,-1,-1,-1,-1,-1,-1,-1,-1,-1,-1,-1,-1,-1,-1,-1,-1,-1,-1,-1,-1,-1,-1,-1,-1],"loss_changes":[5.035811E4,2.77075E3,3.2367457E4,1.9584359E3,6.179844E2,1.1784809E4,1.4633115E4,2.6530054E2,1.6115168E3,1.54296875E1,0E0,1.0435367E4,1.5200469E3,1.8227695E3,7.360991E2,0E0,1.04111084E2,1.1488806E3,4.220285E2,0E0,1.0949219E1,3.9181035E3,4.268151E3,9.916983E3,6.9496094E2,8.992969E2,1.4667395E3,1.502876E2,7.434114E1,6.1502197E1,0E0,7.857818E2,9.081299E0,4.042917E2,0E0,2.6015625E0,1.7802234E2,6.531095E2,1.1299229E3,3.2037502E3,0E0,4.4957544E2,7.8046875E1,2.046211E2,1.4815247E3,2.8555615E3,1.1237109E2,4.5020264E2,3.2302856E0,7.1580457E2,0E0,0E0,0E0,0E0,0E0,0E0,0E0,0E0,0E0,0E0,0E0,0E0,0E0,0E0,0E0,0E0,0E0,0E0,0E0,0E0,0E0,0E0,0E0,0E0,0E0,0E0,0E0,0E0,0E0,0E0,0E0,0E0,0E0,0E0,0E0,0E0,0E0,0E0,0E0],"parents":[2147483647,0,0,1,1,2,2,3,3,4,4,5,5,6,6,7,7,8,8,9,9,11,11,12,12,13,13,14,14,16,16,17,17,18,18,20,20,21,21,22,22,23,23,24,24,25,25,26,26,27,27,28,28,29,29,31,31,32,32,33,33,35,35,36,36,37,37,38,38,39,39,41,41,42,42,43,43,44,44,45,45,46,46,47,47,48,48,49,49],"right_children":[2,4,6,8,10,12,14,16,18,20,-1,22,24,26,28,-1,30,32,34,-1,36,38,40,42,44,46,48,50,52,54,-1,56,58,60,-1,62,64,66,68,70,-1,72,74,76,78,80,82,84,86,88,-1,-1,-1,-1,-1,-1,-1,-1,-1,-1,-1,-1,-1,-1,-1,-1,-1,-1,-1,-1,-1,-1,-1,-1,-1,-1,-1,-1,-1,-1,-1,-1,-1,-1,-1,-1,-1,-1,-1],"split_conditions":[1.553323E4,1E0,1.4061695E5,9E0,4.07E2,1.993827E8,3.0836E2,1.53E2,3.5E1,1.08E2,-1.268062E-1,1.839E3,4.755199E4,1E0,1.4412017E9,-1.2545988E-1,3.0836E2,1.5116915E7,3.0836E2,-9.6966185E-2,7.85271E3,2.182332E6,3.0836E2,4E1,2.5531858E9,2.94681E5,4.07E2,6.292532E7,6.684091E5,1.283568E8,-1.2176301E-1,1.1E1,3.218259E4,2.099771E4,-1.2674217E-1,3.0836E2,5.888426E8,8E1,1.6711232E8,3.45528E7,-1.282775E-1,1.8319738E5,2.723766E8,7.7482665E6,3.2462338E6,4.054365E8,3.59441E5,3.09506E5,2.728805E8,6.30396E7,-1.2808959E-1,1.2682721E-1,-1.20901756E-1,1.2745132E-1,6.461015E-2,1.1846631E-1,-1.4360112E-1,-1.551621E-1,-1.3381821E-1,1.1181934E-1,-1.366881E-1,1.278836E-1,1.17932856E-1,-2.7427828E-1,1.2928382E-1,-1.2995026E-1,1.462134E-1,-1.2361827E-1,-4.6625525E-2,1.1237659E-1,1.0419183E-2,-2.405771E-1,1.3136996E-1,-1.6321653E-1,-1.3377772E-1,-1.3179855E-1,-9.226983E-2,1.5494366E-1,-1.4358215E-1,1.0815164E-1,-1.0305679E-1,-1.4605822E-1,1.2339991E-1,-1.3681911E-1,1.1139657E-1,-2.2417636E-1,-1.330349E-1,-1.2804763E-1,1.2497824E-1],"split_indices":[6,1,3,0,5,2,4,3,0,3,0,3,5,1,2,0,4,10,4,0,6,10,4,3,9,3,5,10,6,2,0,0,5,5,0,4,2,3,10,2,0,6,10,5,6,2,6,3,2,2,0,0,0,0,0,0,0,0,0,0,0,0,0,0,0,0,0,0,0,0,0,0,0,0,0,0,0,0,0,0,0,0,0,0,0,0,0,0,0],"split_type":[0,0,0,0,0,0,0,0,0,0,0,0,0,0,0,0,0,0,0,0,0,0,0,0,0,0,0,0,0,0,0,0,0,0,0,0,0,0,0,0,0,0,0,0,0,0,0,0,0,0,0,0,0,0,0,0,0,0,0,0,0,0,0,0,0,0,0,0,0,0,0,0,0,0,0,0,0,0,0,0,0,0,0,0,0,0,0,0,0],"sum_hessian":[1.1683515E5,2.9437082E4,8.739806E4,4.748532E3,2.468855E4,6.4715613E4,2.2682451E4,2.1093738E3,2.6391584E3,2.4593379E4,9.517127E1,3.1053885E4,3.3661727E4,1.872918E4,3.9532727E3,4.4177597E1,2.0651963E3,1.5170482E3,1.1221101E3,2.3841286E0,2.4590994E4,1.3539117E4,1.7514768E4,7.830107E3,2.5831621E4,1.7464299E4,1.2648809E3,3.8021113E3,1.5116133E2,2.048302E3,1.6894337E1,5.316827E2,9.853655E2,1.0292838E3,9.282636E1,2.4437021E4,1.5397293E2,8.334624E2,1.2705654E4,1.5793675E4,1.7210933E3,1.8629358E3,5.967171E3,2.5131844E4,6.997785E2,4.389371E3,1.3074927E4,7.007335E2,5.6414734E2,6.824916E2,3.1196199E3,1.3868015E2,1.248118E1,1.874958E3,1.7334396E2,3.665062E2,1.651765E2,5.2657007E2,4.5879544E2,9.5986334E2,6.942045E1,2.400261E4,4.344125E2,1.0898483E1,1.4307445E2,9.608901E1,7.3737335E2,1.0368195E4,2.337459E3,4.1964683E3,1.1597207E4,3.2200375E1,1.8307355E3,1.1401646E3,4.8270063E3,2.3734768E4,1.3970747E3,2.6957355E2,4.3020496E2,3.61225E3,7.7712134E2,1.4703955E1,1.3060223E4,8.197964E1,6.187539E2,5.1211147E0,5.5902625E2,5.425918E2,1.3989978E2],"tree_param":{"num_deleted":"0","num_feature":"11","num_nodes":"89","size_leaf_vector":"1"}},{"base_weights":[-5.959909E-4,1.0973886E0,-3.640634E-1,4.123291E-1,1.2312027E0,-6.7316246E-1,7.2743297E-1,1.1104406E0,-1.3694283E-1,1.2407986E0,-1.2339435E-1,1.2337127E0,-7.467239E-1,1.0711559E0,-1.032074E0,-1.2199334E-1,1.1606286E0,-7.805072E-1,7.191564E-1,-9.3225464E-2,1.2410562E0,-4.2565156E-2,1.389281E0,-1.0695656E-1,-9.275732E-1,1.1322014E0,1.5348244E-1,-1.1341172E0,1.0268538E0,1.1805099E0,-1.1815162E-1,3.4976378E-1,-1.3975153E0,8.9034337E-1,-1.2333125E-1,1.2441893E-1,1.0689901E0,1.180457E0,-1.3423546E-1,2.2273722E-1,1.3020735E0,-9.7278875E-1,2.9268235E-1,-1.0912143E0,-1.9986041E-1,9.0070194E-1,1.2372602E0,9.7563046E-1,-1.24854855E-1,-5.778839E-1,-1.2468451E-1,1.2319219E-1,-1.19769655E-1,1.235918E-1,6.0087174E-2,1.11572586E-1,-1.3874494E-1,-1.4817458E-1,-1.2962961E-1,1.04695536E-1,-1.3187717E-1,-3.451582E-1,1.2609202E-1,1.2483694E-1,-1.1953717E-1,1.328888E-1,-1.2825112E-1,-1.2929647E-1,-7.620417E-2,5.530568E-2,-1.2488414E-1,-7.070378E-2,-1.1955398E-1,3.285216E-2,-1.01681724E-1,1.0113765E-1,-1.9437848E-1,-1.3393341E-1,1.2377892E-1,1.0974524E-1,-1.738595E-1,-1.2456109E-1,1.220296E-1],"categories":[],"categories_nodes":[],"categories_segments":[],"categories_sizes":[],"default_left":[0,0,0,0,0,0,0,0,0,0,0,0,0,0,0,0,0,0,0,0,0,0,0,0,0,0,0,0,0,0,0,0,0,0,0,0,0,0,0,0,0,0,0,0,0,0,0,0,0,0,0,0,0,0,0,0,0,0,0,0,0,0,0,0,0,0,0,0,0,0,0,0,0,0,0,0,0,0,0,0,0,0,0],"id":9,"left_children":[1,3,5,7,9,11,13,15,17,19,-1,21,23,25,27,-1,29,31,33,-1,35,37,39,41,43,45,47,49,51,53,-1,55,57,59,-1,-1,61,63,-1,-1,65,67,69,71,73,75,77,79,-1,81,-1,-1,-1,-1,-1,-1,-1,-1,-1,-1,-1,-1,-1,-1,-1,-1,-1,-1,-1,-1,-1,-1,-1,-1,-1,-1,-1,-1,-1,-1,-1,-1,-1],"loss_changes":[4.397514E4,2.5117031E3,2.7930889E4,1.7179377E3,5.438594E2,9.050797E3,1.1050872E4,2.3214038E2,1.3823827E3,1.39375E1,0E0,4.759358E2,7.1873516E3,8.561035E2,6.2860815E2,0E0,9.134253E1,9.993036E2,3.6101215E2,0E0,1.0980469E1,4.1708847E2,1.5324463E2,4.7377905E3,5.7670312E3,3.4744727E2,1.1014962E3,1.7772412E2,6.6046585E1,6.078955E1,0E0,6.7558966E2,5.9798584E0,3.4410266E2,0E0,0E0,3.648259E2,2.3306137E1,0E0,0E0,1.3597827E2,2.9078247E2,3.7609158E3,1.5838477E3,3.8388706E3,1.4115061E3,1.5087891E1,2.010484E2,0E0,5.7956433E2,0E0,0E0,0E0,0E0,0E0,0E0,0E0,0E0,0E0,0E0,0E0,0E0,0E0,0E0,0E0,0E0,0E0,0E0,0E0,0E0,0E0,0E0,0E0,0E0,0E0,0E0,0E0,0E0,0E0,0E0,0E0,0E0,0E0],"parents":[2147483647,0,0,1,1,2,2,3,3,4,4,5,5,6,6,7,7,8,8,9,9,11,11,12,12,13,13,14,14,16,16,17,17,18,18,20,20,21,21,22,22,23,23,24,24,25,25,26,26,27,27,28,28,29,29,31,31,32,32,33,33,36,36,37,37,40,40,41,41,42,42,43,43,44,44,45,45,46,46,47,47,49,49],"right_children":[2,4,6,8,10,12,14,16,18,20,-1,22,24,26,28,-1,30,32,34,-1,36,38,40,42,44,46,48,50,52,54,-1,56,58,60,-1,-1,62,64,-1,-1,66,68,70,72,74,76,78,80,-1,82,-1,-1,-1,-1,-1,-1,-1,-1,-1,-1,-1,-1,-1,-1,-1,-1,-1,-1,-1,-1,-1,-1,-1,-1,-1,-1,-1,-1,-1,-1,-1,-1,-1],"split_conditions":[1.553323E4,1E0,2.0995334E5,9E0,4.07E2,7E0,3.0836E2,1.53E2,3.5E1,1.08E2,-1.2339435E-1,3.851E3,7.74927E7,1E0,1.4412017E9,-1.2199334E-1,3.0836E2,1.5116915E7,3.0836E2,-9.3225464E-2,3.0836E2,4.07E2,4.559E3,1.08E2,6.3741E4,4.27197E5,7.5474706E5,6.292532E7,1.5238286E9,1.283568E8,-1.1815162E-1,1.1E1,3.218259E4,2.099771E4,-1.2333125E-1,1.2441893E-1,4.12544E8,4E1,-1.3423546E-1,2.2273722E-1,2.558729E8,3.8810422E5,3.0836E2,4.755199E4,2.4836472E8,6.108931E8,4.557588E5,1.9E1,-1.24854855E-1,6.30396E7,-1.2468451E-1,1.2319219E-1,-1.19769655E-1,1.235918E-1,6.0087174E-2,1.11572586E-1,-1.3874494E-1,-1.4817458E-1,-1.2962961E-1,1.04695536E-1,-1.3187717E-1,-3.451582E-1,1.2609202E-1,1.2483694E-1,-1.1953717E-1,1.328888E-1,-1.2825112E-1,-1.2929647E-1,-7.620417E-2,5.530568E-2,-1.2488414E-1,-7.070378E-2,-1.1955398E-1,3.285216E-2,-1.01681724E-1,1.0113765E-1,-1.9437848E-1,-1.3393341E-1,1.2377892E-1,1.0974524E-1,-1.738595E-1,-1.2456109E-1,1.220296E-1],"split_indices":[6,1,3,0,5,0,4,3,0,3,0,3,2,1,2,0,4,10,4,0,4,5,3,3,3,3,6,10,2,2,0,0,5,5,0,0,2,3,0,0,2,5,4,5,10,10,6,0,0,2,0,0,0,0,0,0,0,0,0,0,0,0,0,0,0,0,0,0,0,0,0,0,0,0,0,0,0,0,0,0,0,0,0],"split_type":[0,0,0,0,0,0,0,0,0,0,0,0,0,0,0,0,0,0,0,0,0,0,0,0,0,0,0,0,0,0,0,0,0,0,0,0,0,0,0,0,0,0,0,0,0,0,0,0,0,0,0,0,0,0,0,0,0,0,0,0,0,0,0,0,0,0,0,0,0,0,0,0,0,0,0,0,0,0,0,0,0,0,0],"sum_hessian":[1.10188836E5,2.7403783E4,8.278505E4,4.4787812E3,2.2925002E4,6.4515418E4,1.8269633E4,1.9717335E3,2.5070479E3,2.2836604E4,8.8398254E1,2.3957776E3,6.211964E4,1.5284223E4,2.9854097E3,4.107749E1,1.930656E3,1.4312258E3,1.075822E3,2.2774553E0,2.2834326E4,2.6037726E2,2.1354004E3,1.3690411E4,4.8429227E4,1.4330681E4,9.535417E2,2.8448635E3,1.4054614E2,1.9148973E3,1.5758716E1,5.0555472E2,9.2567114E2,9.896006E2,8.6221405E1,2.241986E4,4.1446768E2,1.3419746E2,1.2617978E2,1.989444E2,1.9364559E3,4.3230127E3,9.367398E3,3.9537836E4,8.891391E3,4.476398E3,9.854282E3,6.012652E2,3.5227652E2,4.8042545E2,2.364438E3,1.2909212E2,1.1454021E1,1.7467882E3,1.6810909E2,3.5110516E2,1.5444954E2,4.9779062E2,4.278805E2,9.245799E2,6.5020676E1,1.6188673E1,3.9827902E2,1.3092944E2,3.268027E0,1.9170529E3,1.9403124E1,1.7139592E3,2.6090535E3,8.0143574E3,1.3530411E3,8.445449E3,3.1092387E4,5.3996587E3,3.4917322E3,4.3093716E3,1.6702657E2,1.5028756E0,9.852779E3,5.76008E2,2.525717E1,3.5055823E2,1.298672E2],"tree_param":{"num_deleted":"0","num_feature":"11","num_nodes":"83","size_leaf_vector":"1"}},{"base_weights":[-5.2580057E-4,1.0683625E0,-3.471604E-1,3.9551526E-1,1.2019006E0,-6.7125785E-1,6.018022E-1,1.1916711E0,-5.6230087E-2,1.2112753E0,-1.204436E-1,-2.5793475E-1,-1.0724466E0,9.463005E-1,-1.0541549E0,-1.1506521E-1,1.2177546E0,6.754797E-1,-5.699303E-1,-8.978354E-2,1.2115346E0,-8.681654E-1,1.8670087E-1,-6.846657E-1,-1.1963583E0,1.0248376E0,-1.4100608E-1,-1.1353749E0,9.999988E-1,1.2240682E0,-1.06633976E-1,9.769254E-1,-1.2521037E-1,-1.5072099E0,1.6028139E-1,1.2147876E-1,1.0345436E0,1.0763804E0,-1.0001495E0,3.2894814E-1,-1.2301321E-1,1.2068596E0,-1.3276879E0,-1.2276021E0,-1.567136E-1,6.704724E-1,1.1720703E0,7.5847447E-1,-1.2799842E0,-7.223175E-1,-1.2242031E-1,1.20344736E-1,-1.141248E-1,1.22677825E-1,-7.666131E-2,-1.4437284E-1,1.1879424E-1,-1.7657463E-1,-1.2996034E-1,-6.662726E-2,1.06178634E-1,-2.7899554E-1,1.22947015E-1,-1.2342699E-1,1.3616113E-1,-1.1558545E-1,-3.4013093E-2,1.03038244E-1,8.92589E-3,-2.0245354E-1,1.2682492E-1,-1.54581E-1,-1.2744613E-1,-1.254338E-1,-7.953277E-2,1.4913706E-1,-1.3356851E-1,9.212584E-2,-1.326059E-1,9.919152E-2,1.2066616E-1,-1.3143167E-1,1.03327714E-1,-1.5242058E-1,-1.2488007E-1,-1.21718384E-1,1.18203424E-1],"categories":[],"categories_nodes":[],"categories_segments":[],"categories_sizes":[],"default_left":[0,0,0,0,0,0,0,0,0,0,0,0,0,0,0,0,0,0,0,0,0,0,0,0,0,0,0,0,0,0,0,0,0,0,0,0,0,0,0,0,0,0,0,0,0,0,0,0,0,0,0,0,0,0,0,0,0,0,0,0,0,0,0,0,0,0,0,0,0,0,0,0,0,0,0,0,0,0,0,0,0,0,0,0,0,0,0],"id":10,"left_children":[1,3,5,7,9,11,13,15,17,19,-1,21,23,25,27,-1,29,31,33,-1,35,37,39,41,43,45,47,49,51,53,-1,55,-1,57,59,-1,61,63,65,67,-1,69,71,73,75,77,79,81,83,85,-1,-1,-1,-1,-1,-1,-1,-1,-1,-1,-1,-1,-1,-1,-1,-1,-1,-1,-1,-1,-1,-1,-1,-1,-1,-1,-1,-1,-1,-1,-1,-1,-1,-1,-1,-1,-1],"loss_changes":[3.8487285E4,2.2850664E3,2.4124615E4,1.515637E3,4.8025195E2,9.69523E3,1.1393068E4,9.460303E1,1.0112775E3,1.2650391E1,0E0,7.814667E3,1.4248477E3,1.4117979E3,5.749614E2,0E0,2.3068604E1,6.46068E2,1.0820488E3,0E0,1.0912109E1,3.1167793E3,3.3584292E3,8.743436E3,7.301387E2,8.036113E2,1.1427579E3,1.2052881E2,5.859459E1,9.062744E0,0E0,4.922102E2,0E0,3.486206E1,6.6340967E2,0E0,2.928901E2,5.1054425E2,1.1679629E3,2.5457395E3,0E0,3.6439282E2,6.0308594E1,2.5126953E2,1.2788202E3,2.268306E3,6.667383E1,3.564211E2,1.8446045E0,5.5567065E2,0E0,0E0,0E0,0E0,0E0,0E0,0E0,0E0,0E0,0E0,0E0,0E0,0E0,0E0,0E0,0E0,0E0,0E0,0E0,0E0,0E0,0E0,0E0,0E0,0E0,0E0,0E0,0E0,0E0,0E0,0E0,0E0,0E0,0E0,0E0,0E0,0E0],"parents":[2147483647,0,0,1,1,2,2,3,3,4,4,5,5,6,6,7,7,8,8,9,9,11,11,12,12,13,13,14,14,16,16,17,17,18,18,20,20,21,21,22,22,23,23,24,24,25,25,26,26,27,27,28,28,29,29,31,31,33,33,34,34,36,36,37,37,38,38,39,39,41,41,42,42,43,43,44,44,45,45,46,46,47,47,48,48,49,49],"right_children":[2,4,6,8,10,12,14,16,18,20,-1,22,24,26,28,-1,30,32,34,-1,36,38,40,42,44,46,48,50,52,54,-1,56,-1,58,60,-1,62,64,66,68,-1,70,72,74,76,78,80,82,84,86,-1,-1,-1,-1,-1,-1,-1,-1,-1,-1,-1,-1,-1,-1,-1,-1,-1,-1,-1,-1,-1,-1,-1,-1,-1,-1,-1,-1,-1,-1,-1,-1,-1,-1,-1,-1,-1],"split_conditions":[1.553323E4,1E0,1.4061695E5,8E0,4.07E2,1.993827E8,3.0836E2,1.37E2,1.5116915E7,1.08E2,-1.204436E-1,1.839E3,4.755199E4,1E0,1.4412017E9,-1.1506521E-1,1.00728E5,3.0836E2,2.906E4,-8.978354E-2,3.0836E2,2.182332E6,3.0836E2,4E1,2.5531858E9,3.2037484E5,4.07E2,6.292532E7,6.684091E5,3.0836E2,-1.06633976E-1,5.84E2,-1.2521037E-1,2.310021E4,3.5E1,1.2147876E-1,4.12544E8,8E1,1.6711232E8,3.45528E7,-1.2301321E-1,1.8319738E5,2.723766E8,7.7482665E6,3.2462338E6,4.6162E8,4.27197E5,3.09506E5,7.447331E5,6.30396E7,-1.2242031E-1,1.20344736E-1,-1.141248E-1,1.22677825E-1,-7.666131E-2,-1.4437284E-1,1.1879424E-1,-1.7657463E-1,-1.2996034E-1,-6.662726E-2,1.06178634E-1,-2.7899554E-1,1.22947015E-1,-1.2342699E-1,1.3616113E-1,-1.1558545E-1,-3.4013093E-2,1.03038244E-1,8.92589E-3,-2.0245354E-1,1.2682492E-1,-1.54581E-1,-1.2744613E-1,-1.254338E-1,-7.953277E-2,1.4913706E-1,-1.3356851E-1,9.212584E-2,-1.326059E-1,9.919152E-2,1.2066616E-1,-1.3143167E-1,1.03327714E-1,-1.5242058E-1,-1.2488007E-1,-1.21718384E-1,1.18203424E-1],"split_indices":[6,1,3,0,5,2,4,3,10,3,0,3,5,1,2,0,5,4,3,0,4,10,4,3,9,3,5,10,6,4,0,3,0,5,0,0,2,3,10,2,0,6,10,5,6,2,3,3,6,2,0,0,0,0,0,0,0,0,0,0,0,0,0,0,0,0,0,0,0,0,0,0,0,0,0,0,0,0,0,0,0,0,0,0,0,0,0],"split_type":[0,0,0,0,0,0,0,0,0,0,0,0,0,0,0,0,0,0,0,0,0,0,0,0,0,0,0,0,0,0,0,0,0,0,0,0,0,0,0,0,0,0,0,0,0,0,0,0,0,0,0,0,0,0,0,0,0,0,0,0,0,0,0,0,0,0,0,0,0,0,0,0,0,0,0,0,0,0,0,0,0,0,0,0,0,0,0],"sum_hessian":[1.0387346E5,2.5436123E4,7.843734E4,4.2129E3,2.1223225E4,5.8468867E4,1.9968473E4,1.5244941E3,2.6884058E3,2.1141357E4,8.186746E1,2.8799713E4,2.9669154E4,1.6530059E4,3.4384146E3,1.6314592E1,1.5081796E3,1.1087698E3,1.5796361E3,2.1720753E0,2.1139184E4,1.2138937E4,1.6660777E4,7.1862783E3,2.2482877E4,1.5416563E4,1.1134945E3,3.3080632E3,1.3035156E2,1.5044851E3,3.694517E0,9.592503E2,1.4951945E2,6.912731E2,8.8836304E2,2.0751906E4,3.8727823E2,7.710951E2,1.1367842E4,1.514138E4,1.5193972E3,1.8229574E3,5.363321E3,2.1826748E4,6.561277E2,4.5268115E3,1.0889752E4,6.223459E2,4.9114865E2,5.871071E2,2.720956E3,1.19440956E2,1.0910601E1,1.5028229E3,1.6622422E0,7.6447784E1,8.828025E2,3.0453033E2,3.8674274E2,4.635831E2,4.2477994E2,1.8135866E1,3.6914236E2,8.436098E1,6.8673413E2,9.197345E3,2.170497E3,3.8554292E3,1.128595E4,3.339038E1,1.789567E3,1.0465459E3,4.316775E3,2.055362E4,1.2731295E3,2.7351544E2,3.826122E2,4.0221272E3,5.0468427E2,1.7589014E3,9.130851E3,7.2407234E1,5.4993866E2,5.01905E1,4.4095816E2,4.6629593E2,1.2081119E2],"tree_param":{"num_deleted":"0","num_feature":"11","num_nodes":"87","size_leaf_vector":"1"}},{"base_weights":[-6.37318E-4,1.0423006E0,-3.3234712E-1,3.7933636E-1,1.1765202E0,-6.601889E-1,5.2815187E-1,1.0496113E0,-1.3338889E-1,1.1857051E0,-1.1787148E-1,3.5113238E-2,-8.9354545E-1,8.454317E-1,-1.0452725E0,-1.1616589E-1,1.0962963E0,-7.324796E-1,6.369116E-1,-8.659418E-2,1.1859668E0,-6.5166557E-1,5.6439626E-1,1.1545048E0,-9.3323E-1,3.890434E-1,1.0895169E0,-1.119207E0,9.767228E-1,1.1154292E0,-1.1279129E-1,3.1670395E-1,-1.31156E0,7.949742E-1,-1.1967824E-1,1.1893154E0,1.0051588E0,9.742081E-1,-1.1269397E0,7.945308E-1,-1.1940596E-1,1.2993108E0,-1.2861909E-1,-1.0204849E0,-2.4391818E-1,7.4376786E-1,-1.3093541E0,1.1343625E0,4.198465E-1,-7.6629746E-1,-1.1999356E-1,1.17536545E-1,-1.1394578E-1,1.177125E-1,5.044918E-2,1.0189183E-1,-1.3418333E-1,-1.3742101E-1,-1.23326376E-1,-1.4354633E-1,9.259578E-2,1.1899886E-1,1.07145965E-1,-2.3836093E-1,1.2023442E-1,-1.2153112E-1,1.2861094E-1,-8.5235566E-2,-2.326897E-1,4.967746E-2,1.3549958E-1,4.3409772E-2,1.545444E-1,-6.3324235E-2,-1.13276936E-1,8.488056E-2,-1.15899935E-1,7.939289E-2,-1.9789048E-1,-2.0932515E-1,-1.2591979E-1,9.363607E-2,1.1799166E-1,1.0397911E-1,-1.20281994E-1,-1.1922105E-1,1.15348436E-1],"categories":[],"categories_nodes":[],"categories_segments":[],"categories_sizes":[],"default_left":[0,0,0,0,0,0,0,0,0,0,0,0,0,0,0,0,0,0,0,0,0,0,0,0,0,0,0,0,0,0,0,0,0,0,0,0,0,0,0,0,0,0,0,0,0,0,0,0,0,0,0,0,0,0,0,0,0,0,0,0,0,0,0,0,0,0,0,0,0,0,0,0,0,0,0,0,0,0,0,0,0,0,0,0,0,0,0],"id":11,"left_children":[1,3,5,7,9,11,13,15,17,19,-1,21,23,25,27,-1,29,31,33,-1,35,37,39,41,43,45,47,49,51,53,-1,55,57,59,-1,61,63,65,67,69,-1,71,-1,73,75,77,79,81,83,85,-1,-1,-1,-1,-1,-1,-1,-1,-1,-1,-1,-1,-1,-1,-1,-1,-1,-1,-1,-1,-1,-1,-1,-1,-1,-1,-1,-1,-1,-1,-1,-1,-1,-1,-1,-1,-1],"loss_changes":[3.3785566E4,2.0965E3,2.090275E4,1.3642139E3,4.253418E2,8.705416E3,1.0205692E4,1.7887561E2,1.0386937E3,1.1515625E1,0E0,4.9014736E3,3.266004E3,1.8946621E3,5.139778E2,0E0,7.2978516E1,7.695854E2,2.8637958E2,0E0,1.0621094E1,4.536198E3,3.0826775E3,2.717013E2,2.3699766E3,3.5732673E3,3.3237988E2,9.3387695E1,5.2436867E1,6.240747E1,0E0,5.26679E2,2.3077393E0,2.6637787E2,0E0,2.4609375E-1,2.4435117E2,9.085165E2,1.494499E3,1.1231948E3,0E0,1.5302893E2,0E0,1.5202461E3,4.429865E3,6.7154736E2,3.765747E1,9.2583984E1,7.0263055E2,5.0751932E2,0E0,0E0,0E0,0E0,0E0,0E0,0E0,0E0,0E0,0E0,0E0,0E0,0E0,0E0,0E0,0E0,0E0,0E0,0E0,0E0,0E0,0E0,0E0,0E0,0E0,0E0,0E0,0E0,0E0,0E0,0E0,0E0,0E0,0E0,0E0,0E0,0E0],"parents":[2147483647,0,0,1,1,2,2,3,3,4,4,5,5,6,6,7,7,8,8,9,9,11,11,12,12,13,13,14,14,16,16,17,17,18,18,20,20,21,21,22,22,23,23,24,24,25,25,26,26,27,27,28,28,29,29,31,31,32,32,33,33,35,35,36,36,37,37,38,38,39,39,41,41,43,43,44,44,45,45,46,46,47,47,48,48,49,49],"right_children":[2,4,6,8,10,12,14,16,18,20,-1,22,24,26,28,-1,30,32,34,-1,36,38,40,42,44,46,48,50,52,54,-1,56,58,60,-1,62,64,66,68,70,-1,72,-1,74,76,78,80,82,84,86,-1,-1,-1,-1,-1,-1,-1,-1,-1,-1,-1,-1,-1,-1,-1,-1,-1,-1,-1,-1,-1,-1,-1,-1,-1,-1,-1,-1,-1,-1,-1,-1,-1,-1,-1,-1,-1],"split_conditions":[1.553323E4,1E0,1.0894014E5,9E0,4.07E2,7.74927E7,3.0836E2,1.53E2,3.5E1,1.08E2,-1.1787148E-1,8.219E3,6E0,3.02095E5,1.4412017E9,-1.1616589E-1,3.0836E2,1.5116915E7,3.0836E2,-8.659418E-2,3.0836E2,4.401E6,3.0836E2,1E0,6.3741E4,4.4401427E8,1E0,6.292532E7,1.5238286E9,1.283568E8,-1.1279129E-1,1.1E1,3.218259E4,5.84E2,-1.1967824E-1,7.85271E3,4.12544E8,8E1,1.08E2,3.0852E4,-1.1940596E-1,3.851E3,-1.2861909E-1,4.755199E4,1.546996E8,4.1E1,4.6162E8,4.27197E5,7.5474706E5,6.30396E7,-1.1999356E-1,1.17536545E-1,-1.1394578E-1,1.177125E-1,5.044918E-2,1.0189183E-1,-1.3418333E-1,-1.3742101E-1,-1.23326376E-1,-1.4354633E-1,9.259578E-2,1.1899886E-1,1.07145965E-1,-2.3836093E-1,1.2023442E-1,-1.2153112E-1,1.2861094E-1,-8.5235566E-2,-2.326897E-1,4.967746E-2,1.3549958E-1,4.3409772E-2,1.545444E-1,-6.3324235E-2,-1.13276936E-1,8.488056E-2,-1.15899935E-1,7.939289E-2,-1.9789048E-1,-2.0932515E-1,-1.2591979E-1,9.363607E-2,1.1799166E-1,1.0397911E-1,-1.20281994E-1,-1.1922105E-1,1.15348436E-1],"split_indices":[6,1,3,0,5,2,4,3,0,3,0,3,0,3,2,0,4,10,4,0,4,2,4,1,3,10,1,10,2,2,0,0,5,3,0,6,2,3,3,3,0,3,0,5,2,0,2,3,6,2,0,0,0,0,0,0,0,0,0,0,0,0,0,0,0,0,0,0,0,0,0,0,0,0,0,0,0,0,0,0,0,0,0,0,0,0,0],"split_type":[0,0,0,0,0,0,0,0,0,0,0,0,0,0,0,0,0,0,0,0,0,0,0,0,0,0,0,0,0,0,0,0,0,0,0,0,0,0,0,0,0,0,0,0,0,0,0,0,0,0,0,0,0,0,0,0,0,0,0,0,0,0,0,0,0,0,0,0,0,0,0,0,0,0,0,0,0,0,0,0,0,0,0,0,0,0,0],"sum_hessian":[9.7657484E4,2.3564754E4,7.4092734E4,3.9681748E3,1.959658E4,5.365205E4,2.044068E4,1.7193966E3,2.248778E3,1.952095E4,7.563047E1,1.3482086E4,4.0169965E4,1.7010906E4,3.4297734E3,3.505606E1,1.6843405E3,1.2649948E3,9.837834E2,2.0690317E0,1.9518879E4,5.8678896E3,7.6141963E3,7.6303265E2,3.9406934E4,5.928481E3,1.1082425E4,3.3092178E3,1.20555595E2,1.6704695E3,1.387101E1,4.5004752E2,8.1494727E2,9.062334E2,7.754999E1,1.9158492E4,3.603884E2,1.3270638E3,4.540826E3,6.7335093E3,8.806871E2,7.20739E2,4.2293674E1,3.4978746E4,4.428188E3,4.9046636E3,1.0238177E3,1.0386202E4,6.962222E2,6.180155E2,2.6912024E3,1.10616745E2,9.9388485E0,1.5164075E3,1.5406203E2,3.1645016E2,1.3359737E2,4.435124E2,3.7143488E2,4.9714615E1,8.565188E2,1.9040637E4,1.1785484E2,1.9207415E1,3.41181E2,1.6510999E2,1.1619539E3,3.6966406E3,8.4418524E2,4.3985786E3,2.3349304E3,1.6023631E2,5.605027E2,7.8640615E3,2.7114684E4,2.0182327E3,2.4099553E3,4.816633E3,8.803056E1,5.91182E1,9.6469946E2,1.9466453E3,8.439558E3,5.0401935E2,1.922029E2,5.0611127E2,1.1190425E2],"tree_param":{"num_deleted":"0","num_feature":"11","num_nodes":"87","size_leaf_vector":"1"}},{"base_weights":[-5.0818734E-4,1.0194944E0,-3.1779328E-1,3.6491743E-1,1.1543989E0,-5.803952E-1,6.692399E-1,1.1407669E0,-5.6708205E-2,1.1634198E0,-1.1561292E-1,1.1361094E0,-6.4876485E-1,9.8019934E-1,-9.680446E-1,-1.0970044E-1,1.1657228E0,6.331396E-1,-5.2757746E-1,-8.362042E-2,1.1636853E0,-5.182988E-2,1.2729336E0,-3.0878872E-1,-9.2894346E-1,1.0370288E0,1.3548961E-1,-1.064174E0,9.555461E-1,1.1724737E0,-1.0390544E-1,9.132859E-1,-1.2116479E-1,-1.4407442E0,1.4741343E-1,1.1671118E0,9.798223E-1,1.1141479E0,-1.261506E-1,1.2958012E0,-1.2126632E-1,-6.386388E-1,1.3968424E-1,-1.0243244E0,7.97185E-2,7.9232097E-1,1.1563706E0,8.714871E-1,-1.1758264E-1,-5.4020053E-1,-1.1707349E-1,1.1540484E-1,-1.0872289E-1,1.1751564E-1,-7.069023E-2,-1.3723905E-1,1.11429684E-1,-1.6683032E-1,-1.2488927E-1,-5.9795845E-2,9.3637615E-2,1.1678519E-1,1.0393981E-1,-2.1062005E-1,1.1787986E-1,1.1811232E-1,-1.0616428E-1,1.8322448E-1,1.230969E-1,4.4034228E-2,-9.433069E-2,3.9549436E-2,-1.1903578E-1,-6.7152284E-2,-1.1493216E-1,8.4041804E-2,-1.2739302E-1,9.0362266E-2,-2.016805E-1,-1.3996261E-1,1.1570455E-1,9.945666E-2,-1.7255111E-1,-1.1686703E-1,1.137014E-1],"categories":[],"categories_nodes":[],"categories_segments":[],"categories_sizes":[],"default_left":[0,0,0,0,0,0,0,0,0,0,0,0,0,0,0,0,0,0,0,0,0,0,0,0,0,0,0,0,0,0,0,0,0,0,0,0,0,0,0,0,0,0,0,0,0,0,0,0,0,0,0,0,0,0,0,0,0,0,0,0,0,0,0,0,0,0,0,0,0,0,0,0,0,0,0,0,0,0,0,0,0,0,0,0,0],"id":12,"left_children":[1,3,5,7,9,11,13,15,17,19,-1,21,23,25,27,-1,29,31,33,-1,35,37,39,41,43,45,47,49,51,53,-1,55,-1,57,59,61,63,65,-1,67,-1,69,71,73,75,77,79,81,-1,83,-1,-1,-1,-1,-1,-1,-1,-1,-1,-1,-1,-1,-1,-1,-1,-1,-1,-1,-1,-1,-1,-1,-1,-1,-1,-1,-1,-1,-1,-1,-1,-1,-1,-1,-1],"loss_changes":[2.9704312E4,1.922582E3,1.8146125E4,1.2178003E3,3.7767578E2,6.490158E3,7.4912837E3,7.447986E1,7.8409686E2,1.0519531E1,0E0,3.4440454E2,5.0652266E3,5.934033E2,4.3532324E2,0E0,2.0519653E1,5.0720828E2,8.8445435E2,0E0,1.0185547E1,3.113724E2,1.0955078E2,3.554398E3,2.8047969E3,3.374043E2,7.5435345E2,1.2429175E2,4.6797592E1,7.3513184E0,0E0,3.923999E2,0E0,2.4539185E1,4.8616855E2,4.5507812E-1,2.0833865E2,1.7638306E1,0E0,6.322998E1,0E0,4.5516064E3,3.4652615E3,1.1737812E3,2.5954644E3,1.190207E3,1.5049805E1,1.6170142E2,0E0,4.0185367E2,0E0,0E0,0E0,0E0,0E0,0E0,0E0,0E0,0E0,0E0,0E0,0E0,0E0,0E0,0E0,0E0,0E0,0E0,0E0,0E0,0E0,0E0,0E0,0E0,0E0,0E0,0E0,0E0,0E0,0E0,0E0,0E0,0E0,0E0,0E0],"parents":[2147483647,0,0,1,1,2,2,3,3,4,4,5,5,6,6,7,7,8,8,9,9,11,11,12,12,13,13,14,14,16,16,17,17,18,18,20,20,21,21,22,22,23,23,24,24,25,25,26,26,27,27,28,28,29,29,31,31,33,33,34,34,35,35,36,36,37,37,39,39,41,41,42,42,43,43,44,44,45,45,46,46,47,47,49,49],"right_children":[2,4,6,8,10,12,14,16,18,20,-1,22,24,26,28,-1,30,32,34,-1,36,38,40,42,44,46,48,50,52,54,-1,56,-1,58,60,62,64,66,-1,68,-1,70,72,74,76,78,80,82,-1,84,-1,-1,-1,-1,-1,-1,-1,-1,-1,-1,-1,-1,-1,-1,-1,-1,-1,-1,-1,-1,-1,-1,-1,-1,-1,-1,-1,-1,-1,-1,-1,-1,-1,-1,-1],"split_conditions":[1.553323E4,1E0,2.0995334E5,8E0,4.07E2,7E0,3.0836E2,1.37E2,1.5116915E7,1.08E2,-1.1561292E-1,3.851E3,1.864342E8,1E0,1.4412017E9,-1.0970044E-1,1.00728E5,3.0836E2,2.906E4,-8.362042E-2,3.0836E2,4.07E2,2.558729E8,1.6451E4,1.27448E5,4.27197E5,7.5474706E5,6.292532E7,6.684091E5,3.0836E2,-1.0390544E-1,5.84E2,-1.2116479E-1,2.310021E4,3.5E1,7.85271E3,4.12544E8,4E1,-1.261506E-1,4.559E3,-1.2126632E-1,1.9550958E7,3.0836E2,1.4E1,2.723766E8,6.108931E8,4.557588E5,1.9E1,-1.1758264E-1,6.30396E7,-1.1707349E-1,1.1540484E-1,-1.0872289E-1,1.1751564E-1,-7.069023E-2,-1.3723905E-1,1.11429684E-1,-1.6683032E-1,-1.2488927E-1,-5.9795845E-2,9.3637615E-2,1.1678519E-1,1.0393981E-1,-2.1062005E-1,1.1787986E-1,1.1811232E-1,-1.0616428E-1,1.8322448E-1,1.230969E-1,4.4034228E-2,-9.433069E-2,3.9549436E-2,-1.1903578E-1,-6.7152284E-2,-1.1493216E-1,8.4041804E-2,-1.2739302E-1,9.0362266E-2,-2.016805E-1,-1.3996261E-1,1.1570455E-1,9.945666E-2,-1.7255111E-1,-1.1686703E-1,1.137014E-1],"split_indices":[6,1,3,0,5,0,4,3,10,3,0,3,2,1,2,0,5,4,3,0,4,5,2,3,3,3,6,10,6,4,0,3,0,5,0,6,2,3,0,3,0,9,4,0,10,10,6,0,0,2,0,0,0,0,0,0,0,0,0,0,0,0,0,0,0,0,0,0,0,0,0,0,0,0,0,0,0,0,0,0,0,0,0,0,0],"split_type":[0,0,0,0,0,0,0,0,0,0,0,0,0,0,0,0,0,0,0,0,0,0,0,0,0,0,0,0,0,0,0,0,0,0,0,0,0,0,0,0,0,0,0,0,0,0,0,0,0,0,0,0,0,0,0,0,0,0,0,0,0,0,0,0,0,0,0,0,0,0,0,0,0,0,0,0,0,0,0,0,0,0,0,0,0],"sum_hessian":[9.178233E4,2.1775768E4,7.000656E4,3.7216187E3,1.8054148E4,5.5295508E4,1.4711056E4,1.3097649E3,2.4118538E3,1.7984428E4,6.971984E1,2.1174973E3,5.317801E4,1.2363359E4,2.3476963E3,1.3971858E1,1.295793E3,9.7827936E2,1.4335745E3,1.9690866E0,1.7982459E4,2.1876369E2,1.8987335E3,2.402615E4,2.9151863E4,1.1583809E4,7.7955023E2,2.236382E3,1.1131411E2,1.2923043E3,3.4886959E0,8.4974365E2,1.2853569E2,6.0880853E2,8.2476587E2,1.7648215E4,3.3424527E2,1.1143405E2,1.0732964E2,1.8818988E3,1.6834766E1,1.3843723E4,1.0182427E4,2.6633348E4,2.518514E3,3.7998787E3,7.78393E3,4.9952124E2,2.8002902E2,3.7897623E2,1.8574059E3,1.0185192E2,9.462182E0,1.2908364E3,1.4678607E0,6.821781E1,7.815259E2,2.7496783E2,3.3384073E2,4.2422336E2,4.0054254E2,1.7538424E4,1.0978961E2,1.9665047E1,3.145802E2,1.0854982E2,2.884233E0,1.9997514E2,1.6819236E3,3.0481758E3,1.0795548E4,8.540513E3,1.6419141E3,6.969231E3,1.9664117E4,1.6126465E3,9.058674E2,3.6557124E3,1.441664E2,1.5077196E0,7.7824224E3,4.7750775E2,2.2013489E1,2.758977E2,1.0307854E2],"tree_param":{"num_deleted":"0","num_feature":"11","num_nodes":"85","size_leaf_vector":"1"}},{"base_weights":[-3.804376E-4,9.9872494E-1,-3.0307308E-1,3.511359E-1,1.1350027E0,-5.504439E-1,6.517362E-1,9.9965614E-1,-1.3130575E-1,1.1438818E0,-1.1361581E-1,1.0941536E0,-6.14866E-1,9.530289E-1,-9.5206517E-1,1.0444936E0,-1.1763533E-1,-6.9604987E-1,5.652108E-1,-8.083249E-2,1.1441518E0,-5.0958384E-2,1.2240227E0,-2.8834072E-1,-8.917964E-1,1.0085567E0,1.3054486E-1,-1.0467198E0,9.369572E-1,1.1406573E0,6.07572E-1,2.8741103E-1,-1.247428E0,7.122492E-1,-1.17087245E-1,1.1476432E0,9.5778364E-1,1.0914776E0,-1.22971416E-1,1.2459866E0,-1.17904656E-1,-5.497159E-1,2.2345495E-1,-9.848175E-1,7.3846884E-2,7.554277E-1,1.1355188E0,8.37467E-1,-1.1556933E-1,-5.307175E-1,-1.151758E-1,1.1314644E-1,-1.0930014E-1,-9.6166246E-2,1.1501508E-1,1.0684965E-1,-2.741629E-1,9.377499E-2,-1.3159378E-1,-1.1544011E-1,-1.2783912E-1,8.352364E-2,-1.5763418E-1,1.1484583E-1,1.0091728E-1,-1.9039384E-1,1.1582458E-1,1.1590254E-1,-1.02066316E-1,1.2571208E-1,-1.1168833E-1,2.1976456E-2,-9.61261E-2,5.309081E-2,-1.16995E-1,-5.897239E-2,-1.11866355E-1,7.76904E-2,-1.2446036E-1,8.6191416E-2,-1.9025327E-1,-1.3196196E-1,1.13621704E-1,9.699356E-2,-1.674235E-1,-1.14931E-1,1.11481845E-1],"categories":[],"categories_nodes":[],"categories_segments":[],"categories_sizes":[],"default_left":[0,0,0,0,0,0,0,0,0,0,0,0,0,0,0,0,0,0,0,0,0,0,0,0,0,0,0,0,0,0,0,0,0,0,0,0,0,0,0,0,0,0,0,0,0,0,0,0,0,0,0,0,0,0,0,0,0,0,0,0,0,0,0,0,0,0,0,0,0,0,0,0,0,0,0,0,0,0,0,0,0,0,0,0,0,0,0],"id":13,"left_children":[1,3,5,7,9,11,13,15,17,19,-1,21,23,25,27,29,-1,31,33,-1,35,37,39,41,43,45,47,49,51,53,55,57,59,61,-1,63,65,67,-1,69,-1,71,73,75,77,79,81,83,-1,85,-1,-1,-1,-1,-1,-1,-1,-1,-1,-1,-1,-1,-1,-1,-1,-1,-1,-1,-1,-1,-1,-1,-1,-1,-1,-1,-1,-1,-1,-1,-1,-1,-1,-1,-1,-1,-1],"loss_changes":[2.6137805E4,1.7731328E3,1.5667461E4,1.0936985E3,3.3608984E2,5.582417E3,6.5965356E3,1.4671033E2,7.891215E2,9.642578E0,0E0,2.954524E2,4.584125E3,5.2468555E2,3.870536E2,6.071472E1,0E0,6.010523E2,2.3016306E2,0E0,9.660156E0,2.750933E2,9.562964E1,3.1126055E3,2.4641562E3,3.450879E2,6.62817E2,1.1085791E2,4.2125328E1,2.4990845E1,4.132314E2,4.170364E2,5.6933594E-1,2.3461072E2,0E0,6.738281E-1,1.8011777E2,1.5986694E1,0E0,4.7926514E1,0E0,4.877635E3,3.3706257E3,1.3225312E3,2.2360945E3,1.02018726E3,1.378418E1,1.5810495E2,0E0,3.5724377E2,0E0,0E0,0E0,0E0,0E0,0E0,0E0,0E0,0E0,0E0,0E0,0E0,0E0,0E0,0E0,0E0,0E0,0E0,0E0,0E0,0E0,0E0,0E0,0E0,0E0,0E0,0E0,0E0,0E0,0E0,0E0,0E0,0E0,0E0,0E0,0E0,0E0],"parents":[2147483647,0,0,1,1,2,2,3,3,4,4,5,5,6,6,7,7,8,8,9,9,11,11,12,12,13,13,14,14,15,15,17,17,18,18,20,20,21,21,22,22,23,23,24,24,25,25,26,26,27,27,28,28,29,29,30,30,31,31,32,32,33,33,35,35,36,36,37,37,39,39,41,41,42,42,43,43,44,44,45,45,46,46,47,47,49,49],"right_children":[2,4,6,8,10,12,14,16,18,20,-1,22,24,26,28,30,-1,32,34,-1,36,38,40,42,44,46,48,50,52,54,56,58,60,62,-1,64,66,68,-1,70,-1,72,74,76,78,80,82,84,-1,86,-1,-1,-1,-1,-1,-1,-1,-1,-1,-1,-1,-1,-1,-1,-1,-1,-1,-1,-1,-1,-1,-1,-1,-1,-1,-1,-1,-1,-1,-1,-1,-1,-1,-1,-1,-1,-1],"split_conditions":[1.553323E4,1E0,2.0995334E5,9E0,4.07E2,7E0,3.0836E2,1.00728E5,3.5E1,1.08E2,-1.1361581E-1,3.851E3,1.864342E8,1E0,1.4412017E9,8E0,-1.1763533E-1,1.5116915E7,3.0836E2,-8.083249E-2,3.0836E2,4.07E2,2.558729E8,2.6404E4,1.27448E5,4.27197E5,7.5474706E5,6.292532E7,1.5238286E9,1.37E2,4.47788E7,1.1E1,5.84E2,2.578858E8,-1.17087245E-1,7.85271E3,4.12544E8,4E1,-1.22971416E-1,3.0836E2,-1.17904656E-1,3.66562E7,3.0836E2,4.755199E4,2.723766E8,6.108931E8,4.557588E5,4.07E2,-1.1556933E-1,6.30396E7,-1.151758E-1,1.1314644E-1,-1.0930014E-1,-9.6166246E-2,1.1501508E-1,1.0684965E-1,-2.741629E-1,9.377499E-2,-1.3159378E-1,-1.1544011E-1,-1.2783912E-1,8.352364E-2,-1.5763418E-1,1.1484583E-1,1.0091728E-1,-1.9039384E-1,1.1582458E-1,1.1590254E-1,-1.02066316E-1,1.2571208E-1,-1.1168833E-1,2.1976456E-2,-9.61261E-2,5.309081E-2,-1.16995E-1,-5.897239E-2,-1.11866355E-1,7.76904E-2,-1.2446036E-1,8.6191416E-2,-1.9025327E-1,-1.3196196E-1,1.13621704E-1,9.699356E-2,-1.674235E-1,-1.14931E-1,1.11481845E-1],"split_indices":[6,1,3,0,5,0,4,5,0,3,0,3,2,1,2,0,0,10,4,0,4,5,2,3,3,3,6,10,2,3,2,0,3,9,0,6,2,3,0,4,0,9,4,5,10,10,6,5,0,2,0,0,0,0,0,0,0,0,0,0,0,0,0,0,0,0,0,0,0,0,0,0,0,0,0,0,0,0,0,0,0,0,0,0,0,0,0],"split_type":[0,0,0,0,0,0,0,0,0,0,0,0,0,0,0,0,0,0,0,0,0,0,0,0,0,0,0,0,0,0,0,0,0,0,0,0,0,0,0,0,0,0,0,0,0,0,0,0,0,0,0,0,0,0,0,0,0,0,0,0,0,0,0,0,0,0,0,0,0,0,0,0,0,0,0,0,0,0,0,0,0,0,0,0,0,0,0],"sum_hessian":[8.64263E4,2.0095213E4,6.633108E4,3.4942407E3,1.6600973E4,5.268257E4,1.364851E4,1.4901033E3,2.0041373E3,1.6536818E4,6.4153694E1,1.9852872E3,5.0697285E4,1.1490325E4,2.1581853E3,1.4605287E3,2.9574652E1,1.106762E3,8.9737537E2,1.8727772E0,1.6534945E4,2.0228256E2,1.7830048E3,2.3266303E4,2.743098E4,1.0763435E4,7.268905E2,2.0556282E3,1.02557045E2,1.1957423E3,2.6478635E2,3.977671E2,7.0899493E2,8.2785E2,6.952541E1,1.6225813E4,3.0913205E2,1.0276145E2,9.952112E1,1.767333E3,1.5671705E1,1.54009375E4,7.8653657E3,2.50207E4,2.4102812E3,3.5976396E3,7.1657944E3,4.693065E2,2.57584E2,3.4869724E2,1.7069309E3,9.399337E1,8.563671E0,4.92448E0,1.1908179E3,2.3335278E2,3.143356E1,2.8328015E2,1.1448693E2,1.8661162E2,5.223833E2,7.8623346E2,4.161653E1,1.612362E4,1.0219332E2,1.968066E1,2.894514E2,1.00014175E2,2.7472742E0,1.7595099E3,7.8231077E0,5.366838E3,1.00341E4,6.444101E3,1.4212644E3,6.332757E3,1.8687941E4,1.572281E3,8.3800024E2,3.4597083E3,1.379313E2,1.5001705E0,7.1642944E3,4.4637808E2,2.2928394E1,2.536473E2,9.5049934E1],"tree_param":{"num_deleted":"0","num_feature":"11","num_nodes":"87","size_leaf_vector":"1"}},{"base_weights":[-3.1904926E-4,9.802896E-1,-2.8927514E-1,3.386818E-1,1.1179044E0,-5.148821E-1,6.663748E-1,1.0989449E0,-5.28786E-2,1.1266602E0,-1.1183786E-1,1.0663242E0,-5.7824135E-1,9.604187E-1,-9.261994E-1,-1.0526272E-1,1.1232047E0,5.929569E-1,-4.8165584E-1,1.128752E0,8.1075597E-1,-5.0266158E-2,1.1839855E0,-6.6144675E-2,-7.377925E-1,1.0129504E0,1.896397E-1,-1.0248228E0,9.1959065E-1,1.1299597E0,-9.613805E-2,8.5474443E-1,-1.1842065E-1,-1.3800839E0,1.4788194E-1,-6.9834284E-2,1.1289601E0,-1.9211617E0,1.1394457E-1,1.0712552E0,-1.2020016E-1,1.1999142E0,-1.1246599E-1,-4.5501152E-1,4.917084E-1,-9.035084E-1,-8.9807816E-2,7.761112E-1,1.1168813E0,8.465288E-1,-1.138204E-1,-4.8071545E-1,-1.1350802E-1,1.1152065E-1,-1.0425069E-1,1.1331733E-1,-7.206134E-2,-1.3469355E-1,1.0531377E-1,-1.2874123E-1,-1.7872529E-1,-5.245636E-2,8.451588E-2,1.13138E-1,9.967115E-2,-2.670108E-1,-1.2423017E-1,1.1395532E-1,-9.8287836E-2,1.2107655E-1,-1.0870977E-1,3.7929785E-2,-1.111321E-1,8.4936015E-2,-1.1375331E-1,-4.3761395E-2,-1.0630532E-1,1.8716915E-2,-9.144456E-2,8.9152165E-2,-1.8616451E-1,1.0145148E-1,1.13811605E-1,9.6271046E-2,-1.7366154E-1,-1.1318153E-1,1.094648E-1],"categories":[],"categories_nodes":[],"categories_segments":[],"categories_sizes":[],"default_left":[0,0,0,0,0,0,0,0,0,0,0,0,0,0,0,0,0,0,0,0,0,0,0,0,0,0,0,0,0,0,0,0,0,0,0,0,0,0,0,0,0,0,0,0,0,0,0,0,0,0,0,0,0,0,0,0,0,0,0,0,0,0,0,0,0,0,0,0,0,0,0,0,0,0,0,0,0,0,0,0,0,0,0,0,0,0,0],"id":14,"left_children":[1,3,5,7,9,11,13,15,17,19,-1,21,23,25,27,-1,29,31,33,35,37,39,41,43,45,47,49,51,53,55,-1,57,-1,59,61,-1,63,65,-1,67,-1,69,-1,71,73,75,77,79,81,83,-1,85,-1,-1,-1,-1,-1,-1,-1,-1,-1,-1,-1,-1,-1,-1,-1,-1,-1,-1,-1,-1,-1,-1,-1,-1,-1,-1,-1,-1,-1,-1,-1,-1,-1,-1,-1],"loss_changes":[2.3043354E4,1.633916E3,1.3543201E4,9.735946E2,2.9966797E2,5.0917803E3,5.6190576E3,5.9213867E1,5.9830206E2,9.1171875E0,0E0,2.5732568E2,3.9921582E3,4.0988965E2,3.414225E2,0E0,1.6574097E1,4.0210168E2,7.345812E2,6.5214844E0,9.504819E1,2.4365344E2,6.649585E1,2.5183738E3,4.0002852E3,2.3251855E2,5.6569586E2,1.059989E2,3.7776978E1,7.3389893E0,0E0,3.2989343E2,0E0,1.7888428E1,3.5883633E2,0E0,3.6992188E0,2.5187187E0,0E0,1.4531044E1,0E0,4.4991943E1,0E0,3.7460781E3,2.7795906E3,2.2046914E3,1.7333387E3,8.829717E2,1.31640625E1,1.3184137E2,0E0,3.099593E2,0E0,0E0,0E0,0E0,0E0,0E0,0E0,0E0,0E0,0E0,0E0,0E0,0E0,0E0,0E0,0E0,0E0,0E0,0E0,0E0,0E0,0E0,0E0,0E0,0E0,0E0,0E0,0E0,0E0,0E0,0E0,0E0,0E0,0E0,0E0],"parents":[2147483647,0,0,1,1,2,2,3,3,4,4,5,5,6,6,7,7,8,8,9,9,11,11,12,12,13,13,14,14,16,16,17,17,18,18,19,19,20,20,21,21,22,22,23,23,24,24,25,25,26,26,27,27,28,28,29,29,31,31,33,33,34,34,36,36,37,37,39,39,41,41,43,43,44,44,45,45,46,46,47,47,48,48,49,49,51,51],"right_children":[2,4,6,8,10,12,14,16,18,20,-1,22,24,26,28,-1,30,32,34,36,38,40,42,44,46,48,50,52,54,56,-1,58,-1,60,62,-1,64,66,-1,68,-1,70,-1,72,74,76,78,80,82,84,-1,86,-1,-1,-1,-1,-1,-1,-1,-1,-1,-1,-1,-1,-1,-1,-1,-1,-1,-1,-1,-1,-1,-1,-1,-1,-1,-1,-1,-1,-1,-1,-1,-1,-1,-1,-1],"split_conditions":[1.553323E4,1E0,2.3202688E5,8E0,4.07E2,7E0,3.0836E2,1.37E2,1.5116915E7,7.85271E3,-1.1183786E-1,3.851E3,7.74927E7,1E0,1.4412017E9,-1.0526272E-1,1.00728E5,3.0836E2,2.906E4,8E1,7.489673E8,4.07E2,3.254733E8,1.6451E4,7.0647E4,4.27197E5,7.5474706E5,6.292532E7,6.684091E5,3.0836E2,-9.613805E-2,5.84E2,-1.1842065E-1,3.5E1,3.5E1,-6.9834284E-2,3.0836E2,3.0836E2,1.1394457E-1,4E1,-1.2020016E-1,3.0836E2,-1.1246599E-1,1.9550958E7,3.0836E2,4.755199E4,3.223947E8,6.108931E8,5.805826E5,1.9E1,-1.138204E-1,6.30396E7,-1.1350802E-1,1.1152065E-1,-1.0425069E-1,1.1331733E-1,-7.206134E-2,-1.3469355E-1,1.0531377E-1,-1.2874123E-1,-1.7872529E-1,-5.245636E-2,8.451588E-2,1.13138E-1,9.967115E-2,-2.670108E-1,-1.2423017E-1,1.1395532E-1,-9.8287836E-2,1.2107655E-1,-1.0870977E-1,3.7929785E-2,-1.111321E-1,8.4936015E-2,-1.1375331E-1,-4.3761395E-2,-1.0630532E-1,1.8716915E-2,-9.144456E-2,8.9152165E-2,-1.8616451E-1,1.0145148E-1,1.13811605E-1,9.6271046E-2,-1.7366154E-1,-1.1318153E-1,1.094648E-1],"split_indices":[6,1,3,0,5,0,4,3,10,6,0,3,2,1,2,0,5,4,3,3,2,5,2,3,3,3,6,10,6,4,0,3,0,0,0,0,4,4,0,3,0,4,0,9,4,5,10,10,3,0,0,2,0,0,0,0,0,0,0,0,0,0,0,0,0,0,0,0,0,0,0,0,0,0,0,0,0,0,0,0,0,0,0,0,0,0,0],"split_type":[0,0,0,0,0,0,0,0,0,0,0,0,0,0,0,0,0,0,0,0,0,0,0,0,0,0,0,0,0,0,0,0,0,0,0,0,0,0,0,0,0,0,0,0,0,0,0,0,0,0,0,0,0,0,0,0,0,0,0,0,0,0,0,0,0,0,0,0,0,0,0,0,0,0,0,0,0,0,0,0,0,0,0,0,0,0,0],"sum_hessian":[8.132189E4,1.8508521E4,6.281337E4,3.269315E3,1.5239206E4,5.081709E4,1.1996283E4,1.1107837E3,2.1585312E3,1.5180267E4,5.893925E1,1.9571918E3,4.8859895E4,1.0126905E4,1.8693776E3,1.1912237E1,1.0988715E3,8.611147E2,1.2974164E3,1.50778545E4,1.0241199E2,1.866338E2,1.770558E3,1.1607094E4,3.7252805E4,9.480459E3,6.464461E2,1.7749823E3,9.439527E1,1.0957786E3,3.092911E0,7.510058E2,1.1010892E2,5.340578E2,7.633586E2,1.3353441E0,1.507652E4,1.0478082E1,9.193391E1,9.459259E1,9.2041214E1,1.7589026E3,1.1655419E1,6.8395684E3,4.767525E3,2.9665691E4,7.5871123E3,2.8940103E3,6.5864487E3,4.3273367E2,2.1371245E2,2.999795E2,1.4750028E3,8.623E1,8.165275E0,1.094266E3,1.5125647E0,6.1600605E1,6.894052E2,4.3843246E2,9.562536E1,3.8872476E2,3.7463385E2,1.4798184E4,2.7833597E2,3.587252E0,6.8908296E0,9.197959E1,2.6129978E0,1.7510648E3,7.8377757E0,3.011602E3,3.8279663E3,3.9097368E3,8.577884E2,7.568446E3,2.2097244E4,5.680077E3,1.907035E3,2.77333E3,1.20680176E2,1.1399338E3,5.446515E3,4.147087E2,1.8024975E1,2.1245366E2,8.752583E1],"tree_param":{"num_deleted":"0","num_feature":"11","num_nodes":"87","size_leaf_vector":"1"}},{"base_weights":[-1.9518346E-4,9.6296185E-1,-2.7617705E-1,3.2641798E-1,1.1025527E0,-4.8890522E-1,6.5130067E-1,9.6014345E-1,-1.305708E-1,1.1111989E0,-1.1024421E-1,1.0356895E0,-5.485536E-1,9.372635E-1,-9.139122E-1,1.003164E0,-1.1315975E-1,-6.699918E-1,5.057173E-1,1.1150283E0,9.1081685E-1,-4.9727477E-2,1.1488208E0,-2.4931554E-1,-8.099443E-1,9.88871E-1,1.8348092E-1,-1.0113626E0,9.0418124E-1,1.0982618E0,5.378313E-1,2.605911E-1,-1.2006517E-1,6.4429176E-1,-1.2568007E-1,-7.456141E-2,1.1153075E0,-1.8080364E0,1.1262255E-1,1.0530729E0,-1.17767684E-1,1.1643214E0,-1.09724395E-1,-4.7034743E-1,2.2082107E-1,-9.184446E-1,6.518055E-2,7.424573E-1,1.1000459E0,7.9521656E-1,-1.1779891E0,-4.7370863E-1,-1.1204435E-1,1.0962912E-1,-1.0546871E-1,1.1139431E-1,-1.2915684E-1,-2.484994E-1,1.0394981E-1,8.670812E-2,-1.3049483E-1,7.398104E-2,-2.0024346E-1,1.1162676E-1,9.5632374E-2,-2.0197716E-1,-1.1908815E-1,1.1222895E-1,-9.4780825E-2,1.1749198E-1,-1.0578382E-1,1.8346421E-2,-8.310767E-2,5.2891042E-2,-1.1451151E-1,-5.1073797E-2,-1.0726812E-1,6.0626026E-2,-1.4343022E-1,8.534842E-2,-1.7501801E-1,9.908143E-2,1.1229279E-1,9.221002E-2,-1.5367238E-1,-1.707084E-1,-1.11466944E-1,-1.11673534E-1,1.07613444E-1],"categories":[],"categories_nodes":[],"categories_segments":[],"categories_sizes":[],"default_left":[0,0,0,0,0,0,0,0,0,0,0,0,0,0,0,0,0,0,0,0,0,0,0,0,0,0,0,0,0,0,0,0,0,0,0,0,0,0,0,0,0,0,0,0,0,0,0,0,0,0,0,0,0,0,0,0,0,0,0,0,0,0,0,0,0,0,0,0,0,0,0,0,0,0,0,0,0,0,0,0,0,0,0,0,0,0,0,0,0],"id":15,"left_children":[1,3,5,7,9,11,13,15,17,19,-1,21,23,25,27,29,-1,31,33,35,37,39,41,43,45,47,49,51,53,55,57,59,-1,61,-1,-1,63,65,-1,67,-1,69,-1,71,73,75,77,79,81,83,85,87,-1,-1,-1,-1,-1,-1,-1,-1,-1,-1,-1,-1,-1,-1,-1,-1,-1,-1,-1,-1,-1,-1,-1,-1,-1,-1,-1,-1,-1,-1,-1,-1,-1,-1,-1,-1,-1],"loss_changes":[2.0332834E4,1.5134287E3,1.1731067E4,8.879116E2,2.6760156E2,4.3987783E3,4.96608E3,1.16725464E2,6.11968E2,9.666016E0,0E0,2.2370337E2,3.6403584E3,3.6470898E2,3.04615E2,5.5129395E1,0E0,4.7677176E2,2.0063666E2,7.923828E0,1.5808296E2,2.162758E2,5.870337E1,2.2552986E3,2.3588867E3,2.3967773E2,5.0254996E2,9.491321E1,3.417144E1,4.0583008E1,3.295627E2,3.345985E2,0E0,1.9341135E2,0E0,0E0,1.0195312E0,2.0082855E-1,0E0,1.324263E1,0E0,3.983423E1,0E0,3.48183E3,2.9215662E3,1.3893145E3,2.224932E3,7.5768665E2,1.4002441E1,1.245513E2,4.36615E0,2.7647742E2,0E0,0E0,0E0,0E0,0E0,0E0,0E0,0E0,0E0,0E0,0E0,0E0,0E0,0E0,0E0,0E0,0E0,0E0,0E0,0E0,0E0,0E0,0E0,0E0,0E0,0E0,0E0,0E0,0E0,0E0,0E0,0E0,0E0,0E0,0E0,0E0,0E0],"parents":[2147483647,0,0,1,1,2,2,3,3,4,4,5,5,6,6,7,7,8,8,9,9,11,11,12,12,13,13,14,14,15,15,17,17,18,18,19,19,20,20,21,21,22,22,23,23,24,24,25,25,26,26,27,27,28,28,29,29,30,30,31,31,33,33,36,36,37,37,39,39,41,41,43,43,44,44,45,45,46,46,47,47,48,48,49,49,50,50,51,51],"right_children":[2,4,6,8,10,12,14,16,18,20,-1,22,24,26,28,30,-1,32,34,36,38,40,42,44,46,48,50,52,54,56,58,60,-1,62,-1,-1,64,66,-1,68,-1,70,-1,72,74,76,78,80,82,84,86,88,-1,-1,-1,-1,-1,-1,-1,-1,-1,-1,-1,-1,-1,-1,-1,-1,-1,-1,-1,-1,-1,-1,-1,-1,-1,-1,-1,-1,-1,-1,-1,-1,-1,-1,-1,-1,-1],"split_conditions":[1.553323E4,1E0,2.3202688E5,9E0,4.07E2,7E0,3.0836E2,1.00728E5,3.5E1,3.0836E2,-1.1024421E-1,3.851E3,1.864342E8,1E0,1.4412017E9,5.28957E7,-1.1315975E-1,1.5116915E7,2.099771E4,1.08E2,4.12544E8,4.07E2,3.254733E8,3.0852E4,1.27448E5,4.27197E5,4.07E2,6.292532E7,1.5238286E9,3.218259E4,8.28062E4,1.1E1,-1.2006517E-1,4.2E1,-1.2568007E-1,-7.456141E-2,7.85271E3,7.85271E3,1.1262255E-1,4E1,-1.17767684E-1,3.0836E2,-1.09724395E-1,3.66562E7,3.0836E2,4.755199E4,3.223947E8,6.108931E8,5.805826E5,1.9E1,7.34648E5,6.30396E7,-1.1204435E-1,1.0962912E-1,-1.0546871E-1,1.1139431E-1,-1.2915684E-1,-2.484994E-1,1.0394981E-1,8.670812E-2,-1.3049483E-1,7.398104E-2,-2.0024346E-1,1.1162676E-1,9.5632374E-2,-2.0197716E-1,-1.1908815E-1,1.1222895E-1,-9.4780825E-2,1.1749198E-1,-1.0578382E-1,1.8346421E-2,-8.310767E-2,5.2891042E-2,-1.1451151E-1,-5.1073797E-2,-1.0726812E-1,6.0626026E-2,-1.4343022E-1,8.534842E-2,-1.7501801E-1,9.908143E-2,1.1229279E-1,9.221002E-2,-1.5367238E-1,-1.707084E-1,-1.11466944E-1,-1.11673534E-1,1.07613444E-1],"split_indices":[6,1,3,0,5,0,4,5,0,4,0,3,2,1,2,2,0,10,5,3,2,5,2,3,3,3,5,10,2,5,3,0,0,0,0,0,6,6,0,3,0,4,0,9,4,5,10,10,3,0,6,2,0,0,0,0,0,0,0,0,0,0,0,0,0,0,0,0,0,0,0,0,0,0,0,0,0,0,0,0,0,0,0,0,0,0,0,0,0],"split_type":[0,0,0,0,0,0,0,0,0,0,0,0,0,0,0,0,0,0,0,0,0,0,0,0,0,0,0,0,0,0,0,0,0,0,0,0,0,0,0,0,0,0,0,0,0,0,0,0,0,0,0,0,0,0,0,0,0,0,0,0,0,0,0,0,0,0,0,0,0,0,0,0,0,0,0,0,0,0,0,0,0,0,0,0,0,0,0,0,0],"sum_hessian":[7.6490734E4,1.7035516E4,5.9455223E4,3.0645032E3,1.3971013E4,4.836305E4,1.1092173E4,1.283508E3,1.7809951E3,1.39169375E4,5.4075607E1,1.8203027E3,4.6542746E4,9.379034E3,1.7131389E3,1.2581522E3,2.5355844E1,9.638373E2,8.1715784E2,1.3651493E4,2.6544385E2,1.7187169E2,1.648431E3,2.1701262E4,2.4841484E4,8.777756E3,6.012781E2,1.6264067E3,8.6732185E1,1.0435306E3,2.1462158E2,3.5020862E2,6.1362866E2,7.5818176E2,5.8976086E1,1.647988E0,1.3649846E4,1.8943867E1,2.4649997E2,8.6938225E1,8.4933464E1,1.6376111E3,1.0819992E1,1.4761317E4,6.939945E3,2.2101262E4,2.7402224E3,2.7314067E3,6.046349E3,4.151561E2,1.8612201E2,2.752174E2,1.3511893E3,7.938691E1,7.3452773E0,1.0372583E3,6.272229E0,2.9985939E1,1.8463565E2,2.5274236E2,9.746627E1,7.3246796E2,2.5713802E1,1.3561928E4,8.791731E1,1.2412604E1,6.5312614E0,8.445575E1,2.4824767E0,1.6303068E3,7.304283E0,5.2486953E3,9.512622E3,5.6632104E3,1.2767345E3,6.0673193E3,1.6033942E4,2.0140571E3,7.261653E2,2.6155623E3,1.15844604E2,1.0548953E3,4.9914536E3,3.9430603E2,2.0850061E1,1.7118782E1,1.6900322E2,1.9471147E2,8.050594E1],"tree_param":{"num_deleted":"0","num_feature":"11","num_nodes":"89","size_leaf_vector":"1"}},{"base_weights":[-9.85208E-5,9.472797E-1,-2.6307812E-1,3.147752E-1,1.0890164E0,-4.629853E-1,6.367126E-1,9.402485E-1,-1.2611257E-1,1.0975689E0,-1.0880587E-1,5.984706E-1,-5.434815E-1,9.147411E-1,-9.0298116E-1,9.8243487E-1,-1.1107339E-1,-6.525522E-1,4.7305137E-1,1.1014826E0,8.9380825E-1,1.0568769E0,-2.510467E-1,-2.4727763E-1,-8.118041E-1,6.590515E-1,1.0702658E0,-9.994356E-1,8.8936263E-1,1.079424E0,5.179065E-1,2.483528E-1,-1.17926136E-1,6.150489E-1,-1.1535324E-1,-7.2258525E-2,1.1017691E0,-1.6670777E-1,1.1119381E-1,1.5457202E0,9.109426E-1,6.583853E-1,-1.202354E0,-6.2626743E-1,4.856336E-3,-9.28391E-1,7.466891E-2,8.085474E-1,-1.6417453E0,1.0960474E0,4.9260974E-1,-4.6737787E-1,-1.1075224E-1,1.0837235E-1,-1.004172E-1,1.0950364E-1,-1.2598994E-1,-2.2126916E-1,1.01253174E-1,8.21372E-2,-1.2820259E-1,7.324285E-2,-1.5206017E-1,1.1028322E-1,9.2907384E-2,-1.1709254E-1,1.6005622E-1,1.0403224E-1,-1.1872836E-1,-1.3158719E-1,1.10280685E-1,-1.1525854E-1,-1.559008E-1,-8.417018E-2,6.596308E-2,-4.305209E-2,3.8945757E-2,-5.5632014E-2,-1.0501225E-1,5.6617297E-2,-1.4193533E-1,5.594767E-2,9.403396E-2,-1.433415E-1,-3.233165E-1,9.9167936E-2,1.1095104E-1,-1.311327E-1,1.066607E-1,-1.1033423E-1,1.05896726E-1],"categories":[],"categories_nodes":[],"categories_segments":[],"categories_sizes":[],"default_left":[0,0,0,0,0,0,0,0,0,0,0,0,0,0,0,0,0,0,0,0,0,0,0,0,0,0,0,0,0,0,0,0,0,0,0,0,0,0,0,0,0,0,0,0,0,0,0,0,0,0,0,0,0,0,0,0,0,0,0,0,0,0,0,0,0,0,0,0,0,0,0,0,0,0,0,0,0,0,0,0,0,0,0,0,0,0,0,0,0,0,0],"id":16,"left_children":[1,3,5,7,9,11,13,15,17,19,-1,21,23,25,27,29,-1,31,33,35,37,39,41,43,45,47,49,51,53,55,57,59,-1,61,-1,-1,63,-1,-1,65,67,69,71,73,75,77,79,81,83,85,87,89,-1,-1,-1,-1,-1,-1,-1,-1,-1,-1,-1,-1,-1,-1,-1,-1,-1,-1,-1,-1,-1,-1,-1,-1,-1,-1,-1,-1,-1,-1,-1,-1,-1,-1,-1,-1,-1,-1,-1],"loss_changes":[1.7955049E4,1.4034248E3,1.0146896E4,7.90989E2,2.3936328E2,3.9440078E3,4.390651E3,1.0369653E2,5.311869E2,9.176758E0,0E0,1.2674453E3,3.40962E3,3.4473047E2,2.7213806E2,5.1816284E1,0E0,4.256114E2,1.8265472E2,7.326172E0,1.3895697E2,1.4938184E2,9.881668E2,1.9487078E3,2.3265361E3,1.1322627E3,7.987695E1,8.513269E1,3.0770874E1,3.646985E1,2.7603406E2,2.917737E2,0E0,1.8289465E2,0E0,0E0,1.2714844E0,0E0,0E0,7.405835E1,4.4378357E2,5.139656E2,8.110352E0,2.2575256E3,2.0509128E3,9.004707E2,1.9227542E3,1.00841064E2,6.1983704E1,6.161621E0,2.4215936E2,2.4695345E2,0E0,0E0,0E0,0E0,0E0,0E0,0E0,0E0,0E0,0E0,0E0,0E0,0E0,0E0,0E0,0E0,0E0,0E0,0E0,0E0,0E0,0E0,0E0,0E0,0E0,0E0,0E0,0E0,0E0,0E0,0E0,0E0,0E0,0E0,0E0,0E0,0E0,0E0,0E0],"parents":[2147483647,0,0,1,1,2,2,3,3,4,4,5,5,6,6,7,7,8,8,9,9,11,11,12,12,13,13,14,14,15,15,17,17,18,18,19,19,20,20,21,21,22,22,23,23,24,24,25,25,26,26,27,27,28,28,29,29,30,30,31,31,33,33,36,36,39,39,40,40,41,41,42,42,43,43,44,44,45,45,46,46,47,47,48,48,49,49,50,50,51,51],"right_children":[2,4,6,8,10,12,14,16,18,20,-1,22,24,26,28,30,-1,32,34,36,38,40,42,44,46,48,50,52,54,56,58,60,-1,62,-1,-1,64,-1,-1,66,68,70,72,74,76,78,80,82,84,86,88,90,-1,-1,-1,-1,-1,-1,-1,-1,-1,-1,-1,-1,-1,-1,-1,-1,-1,-1,-1,-1,-1,-1,-1,-1,-1,-1,-1,-1,-1,-1,-1,-1,-1,-1,-1,-1,-1,-1,-1],"split_conditions":[1.553323E4,1E0,2.3202688E5,9E0,4.07E2,9E0,3.0836E2,1.00728E5,3.5E1,3.0836E2,-1.0880587E-1,3.999414E4,1.8622715E8,4.698736E5,1.4412017E9,5.28957E7,-1.1107339E-1,1.5116915E7,3.0836E2,1.08E2,4.12544E8,4E1,9.18553E7,1.839E3,1.27448E5,6.976415E8,1E0,6.292532E7,6.684091E5,3.218259E4,8.28062E4,1.1E1,-1.17926136E-1,2.578858E8,-1.1535324E-1,-7.2258525E-2,7.85271E3,-1.6670777E-1,1.1119381E-1,2.558729E8,3.254733E8,1.8203E4,4.827E4,1.6711232E8,2.2E1,1.4E1,3.223947E8,2E1,4.27197E5,5.805826E5,9.94274E5,6.30396E7,-1.1075224E-1,1.0837235E-1,-1.004172E-1,1.0950364E-1,-1.2598994E-1,-2.2126916E-1,1.01253174E-1,8.21372E-2,-1.2820259E-1,7.324285E-2,-1.5206017E-1,1.1028322E-1,9.2907384E-2,-1.1709254E-1,1.6005622E-1,1.0403224E-1,-1.1872836E-1,-1.3158719E-1,1.10280685E-1,-1.1525854E-1,-1.559008E-1,-8.417018E-2,6.596308E-2,-4.305209E-2,3.8945757E-2,-5.5632014E-2,-1.0501225E-1,5.6617297E-2,-1.4193533E-1,5.594767E-2,9.403396E-2,-1.433415E-1,-3.233165E-1,9.9167936E-2,1.1095104E-1,-1.311327E-1,1.066607E-1,-1.1033423E-1,1.05896726E-1],"split_indices":[6,1,3,0,5,0,4,5,0,4,0,5,10,3,2,2,0,10,4,3,2,3,2,3,3,2,1,10,6,5,3,0,0,9,0,0,6,0,0,2,2,3,3,10,0,0,10,0,3,3,3,2,0,0,0,0,0,0,0,0,0,0,0,0,0,0,0,0,0,0,0,0,0,0,0,0,0,0,0,0,0,0,0,0,0,0,0,0,0,0,0],"split_type":[0,0,0,0,0,0,0,0,0,0,0,0,0,0,0,0,0,0,0,0,0,0,0,0,0,0,0,0,0,0,0,0,0,0,0,0,0,0,0,0,0,0,0,0,0,0,0,0,0,0,0,0,0,0,0,0,0,0,0,0,0,0,0,0,0,0,0,0,0,0,0,0,0,0,0,0,0,0,0,0,0,0,0,0,0,0,0,0,0,0,0],"sum_hessian":[7.206577E4,1.5657473E4,5.6408305E4,2.86693E3,1.2790543E4,4.615459E4,1.0253714E4,1.1848661E3,1.682064E3,1.2740987E4,4.9555927E1,3.2529844E3,4.2901605E4,8.685708E3,1.5680062E3,1.1614963E3,2.3369656E1,8.9532294E2,7.86741E2,1.2496549E4,2.4443846E2,2.112707E3,1.1402775E3,2.0392283E4,2.250932E4,3.2869888E3,5.398719E3,1.4883533E3,7.9652916E1,9.597798E2,2.0171661E2,3.3051865E2,5.6480426E2,7.2414636E2,6.2594673E1,1.566545E0,1.2494982E4,1.8665016E1,2.2577344E2,4.8350266E2,1.6292042E3,5.8312695E2,5.571506E2,8.1461255E3,1.2246158E4,1.9892992E4,2.6163276E3,3.087054E3,1.9993488E2,5.1672026E3,2.3151686E2,2.522036E2,1.2361497E3,7.262593E1,7.026982E0,9.539451E2,5.8346562E0,3.0402876E1,1.7131374E2,2.4081401E2,8.970463E1,6.8704224E2,3.710415E1,1.2413188E4,8.17933E1,9.1647835E0,4.7433786E2,1.5350547E3,9.414959E1,1.067867E2,4.7634024E2,4.9263812E2,6.451245E1,6.9774897E3,1.1686356E3,5.74386E3,6.5022983E3,4.905367E3,1.4987625E4,1.9691401E3,6.4718756E2,1.070046E3,2.0170079E3,1.7847208E2,2.1462809E1,5.9891895E2,4.5682837E3,5.5574593E1,1.7594226E2,1.7822275E2,7.398085E1],"tree_param":{"num_deleted":"0","num_feature":"11","num_nodes":"91","size_leaf_vector":"1"}},{"base_weights":[6.0722974E-5,9.3294215E-1,-2.4943022E-1,3.039641E-1,1.0769246E0,-4.3612558E-1,6.2227803E-1,1.0521498E0,-5.0978344E-2,1.0853953E0,-1.0749848E-1,9.9670626E-2,-5.8466554E-1,8.923169E-1,-8.9325327E-1,-1.0000827E-1,1.0758039E0,8.5907453E-1,-3.1808683E-1,1.0893613E0,8.796519E-1,-3.5458535E-1,4.515054E-1,-7.4626696E-1,-1.069008E-3,6.297664E-1,1.0570666E0,-9.8882633E-1,8.760902E-1,1.0825744E0,-8.597582E-2,1.0034682E0,-1.1853584E-1,-1.416166E0,1.0987796E-3,-7.006334E-2,1.0896559E0,-1.5627818E-1,1.0992428E-1,8.83285E-1,-8.524393E-1,6.7782795E-1,-1.1201791E-1,-3.4012324E-1,-9.3078935E-1,1.5255804E-1,-1.1710185E-1,7.7182204E-1,-1.6082295E0,1.0829792E0,4.815778E-1,-4.616144E-1,-1.0960815E-1,1.06718734E-1,-1.022081E-1,1.086589E-1,-7.196426E-2,-1.3232338E-1,1.13041975E-1,-1.985685E-1,-1.1992663E-1,2.545015E-2,-1.2173536E-1,1.0908327E-1,9.0233006E-2,-1.1969043E-1,1.1943587E-1,-1.0892878E-1,1.3152601E-1,1.0068264E-1,3.5560835E-2,1.2221076E-1,-9.762633E-2,-9.680315E-2,6.550142E-2,7.996502E-2,-2.7846677E-2,5.2867275E-2,9.130743E-2,-1.4020963E-1,-3.178369E-1,9.7068E-2,1.0976161E-1,-1.2949038E-1,1.04114726E-1,-1.09139554E-1,1.0428834E-1],"categories":[],"categories_nodes":[],"categories_segments":[],"categories_sizes":[],"default_left":[0,0,0,0,0,0,0,0,0,0,0,0,0,0,0,0,0,0,0,0,0,0,0,0,0,0,0,0,0,0,0,0,0,0,0,0,0,0,0,0,0,0,0,0,0,0,0,0,0,0,0,0,0,0,0,0,0,0,0,0,0,0,0,0,0,0,0,0,0,0,0,0,0,0,0,0,0,0,0,0,0,0,0,0,0,0,0],"id":17,"left_children":[1,3,5,7,9,11,13,15,17,19,-1,21,23,25,27,-1,29,31,33,35,37,39,41,43,45,47,49,51,53,55,-1,57,-1,59,61,-1,63,-1,-1,65,67,69,-1,71,73,75,-1,77,79,81,83,85,-1,-1,-1,-1,-1,-1,-1,-1,-1,-1,-1,-1,-1,-1,-1,-1,-1,-1,-1,-1,-1,-1,-1,-1,-1,-1,-1,-1,-1,-1,-1,-1,-1,-1,-1],"loss_changes":[1.5856867E4,1.301583E3,8.748356E3,7.1156525E2,2.1439941E2,3.523579E3,3.8814111E3,4.2926453E1,4.4223056E2,8.548828E0,0E0,1.5361405E3,3.2690654E3,3.4748047E2,2.4344775E2,0E0,1.2106445E1,1.2305554E2,4.9290173E2,6.7910156E0,1.22692154E2,2.586203E3,1.927359E3,2.034081E3,1.3514177E3,9.886107E2,7.320557E1,7.6480835E1,2.7950176E1,6.9335938E0,0E0,1.1555014E2,0E0,3.6742554E1,3.370404E2,0E0,1.5341797E0,0E0,0E0,7.804048E2,1.5378071E3,5.016089E2,0E0,8.430513E3,1.1029736E3,1.8539318E3,0E0,9.984131E1,5.5644318E1,6.7094727E0,2.1489468E2,2.2084842E2,0E0,0E0,0E0,0E0,0E0,0E0,0E0,0E0,0E0,0E0,0E0,0E0,0E0,0E0,0E0,0E0,0E0,0E0,0E0,0E0,0E0,0E0,0E0,0E0,0E0,0E0,0E0,0E0,0E0,0E0,0E0,0E0,0E0,0E0,0E0],"parents":[2147483647,0,0,1,1,2,2,3,3,4,4,5,5,6,6,7,7,8,8,9,9,11,11,12,12,13,13,14,14,16,16,17,17,18,18,19,19,20,20,21,21,22,22,23,23,24,24,25,25,26,26,27,27,28,28,29,29,31,31,33,33,34,34,36,36,39,39,40,40,41,41,43,43,44,44,45,45,47,47,48,48,49,49,50,50,51,51],"right_children":[2,4,6,8,10,12,14,16,18,20,-1,22,24,26,28,-1,30,32,34,36,38,40,42,44,46,48,50,52,54,56,-1,58,-1,60,62,-1,64,-1,-1,66,68,70,-1,72,74,76,-1,78,80,82,84,86,-1,-1,-1,-1,-1,-1,-1,-1,-1,-1,-1,-1,-1,-1,-1,-1,-1,-1,-1,-1,-1,-1,-1,-1,-1,-1,-1,-1,-1,-1,-1,-1,-1,-1,-1],"split_conditions":[1.553323E4,1E0,2.3202688E5,8E0,4.07E2,6.09966E7,3.0836E2,1.37E2,4.359791E6,3.0836E2,-1.0749848E-1,8.219E3,7.0647E4,4.698736E5,1.4412017E9,-1.0000827E-1,1.00728E5,2.054E3,7.32E3,1.08E2,4.12544E8,4.401E6,3.0836E2,9.2201E4,3.0836E2,6.976415E8,1E0,6.292532E7,1.5238286E9,3.0836E2,-8.597582E-2,5.84E2,-1.1853584E-1,1.263E3,2.099771E4,-7.006334E-2,7.85271E3,-1.5627818E-1,1.0992428E-1,8E1,5.885223E7,3.23968E7,-1.1201791E-1,4E1,2.553186E9,1.926278E8,-1.1710185E-1,3.02095E5,4.27197E5,5.805826E5,9.94274E5,6.30396E7,-1.0960815E-1,1.06718734E-1,-1.022081E-1,1.086589E-1,-7.196426E-2,-1.3232338E-1,1.13041975E-1,-1.985685E-1,-1.1992663E-1,2.545015E-2,-1.2173536E-1,1.0908327E-1,9.0233006E-2,-1.1969043E-1,1.1943587E-1,-1.0892878E-1,1.3152601E-1,1.0068264E-1,3.5560835E-2,1.2221076E-1,-9.762633E-2,-9.680315E-2,6.550142E-2,7.996502E-2,-2.7846677E-2,5.2867275E-2,9.130743E-2,-1.4020963E-1,-3.178369E-1,9.7068E-2,1.0976161E-1,-1.2949038E-1,1.04114726E-1,-1.09139554E-1,1.0428834E-1],"split_indices":[6,1,3,0,5,2,4,3,10,4,0,3,3,3,2,0,5,3,3,3,2,2,4,5,4,2,1,10,2,4,0,3,0,5,5,0,6,0,0,3,9,2,0,3,2,10,0,3,3,3,3,2,0,0,0,0,0,0,0,0,0,0,0,0,0,0,0,0,0,0,0,0,0,0,0,0,0,0,0,0,0,0,0,0,0,0,0],"split_type":[0,0,0,0,0,0,0,0,0,0,0,0,0,0,0,0,0,0,0,0,0,0,0,0,0,0,0,0,0,0,0,0,0,0,0,0,0,0,0,0,0,0,0,0,0,0,0,0,0,0,0,0,0,0,0,0,0,0,0,0,0,0,0,0,0,0,0,0,0,0,0,0,0,0,0,0,0,0,0,0,0,0,0,0,0,0,0],"sum_hessian":[6.812765E4,1.4374953E4,5.375269E4,2.6782585E3,1.1696694E4,4.427149E4,9.481206E3,8.611244E2,1.8171343E3,1.1651325E4,4.5369118E1,9.609507E3,3.466198E4,8.047675E3,1.433531E3,9.34187E0,8.5178253E2,4.1182123E2,1.405313E3,1.1426769E4,2.2455678E2,4.1942617E3,5.4152446E3,2.7145066E4,7.516914E3,3.104718E3,4.942957E3,1.3604841E3,7.304695E1,8.492525E2,2.529992E0,3.8512958E2,2.6691645E1,3.1571994E2,1.089593E3,1.489391E0,1.1425279E4,1.801916E1,2.0653761E2,1.2028087E3,2.9914531E3,4.7341025E3,6.81142E2,8.480928E3,1.8664139E4,6.6451973E3,8.717168E2,2.9200261E3,1.84692E2,4.7291353E3,2.1382149E2,2.308831E2,1.129601E3,6.6763374E1,6.2835746E0,8.4776117E2,1.4913504E0,1.9438982E1,3.656906E2,8.482856E1,2.3089137E2,9.0265765E2,1.8693544E2,1.1349159E4,7.6119865E1,1.5610007E2,1.0467086E3,2.697243E3,2.9421033E2,2.3413604E3,2.3927422E3,2.4538494E3,6.027078E3,1.8236256E4,4.2788354E2,2.656369E3,3.9888281E3,1.0747363E3,1.8452897E3,1.6493213E2,1.9759872E1,5.5307385E2,4.1760615E3,5.090327E1,1.6291821E2,1.6294789E2,6.793522E1],"tree_param":{"num_deleted":"0","num_feature":"11","num_nodes":"87","size_leaf_vector":"1"}},{"base_weights":[6.860712E-5,9.176378E-1,-2.3857394E-1,2.9050004E-1,1.0660483E0,-4.4803223E-1,4.752935E-1,1.0387936E0,-4.8792433E-2,1.0744481E0,-1.0630124E-1,-1.2053459E-1,-8.0138654E-1,7.5469536E-1,-9.650865E-1,-9.828598E-2,1.0623434E0,8.433274E-1,-2.975049E-1,1.0768905E0,7.2679585E-1,-5.448467E-1,1.3616014E-1,-3.1182352E-1,-1.0212414E0,4.7645324E-1,1.0289336E0,-1.0333507E0,8.6291724E-1,1.069226E0,-8.339887E-2,9.854002E-1,-1.16520286E-1,-1.3854271E0,1.1572708E-4,-6.1072286E-2,1.0771239E0,-1.9274359E0,1.0864893E-1,-7.49795E-1,5.9619343E-1,2.3544021E-1,-1.1219124E-1,1.2567725E0,-9.997749E-1,-1.0770489E0,4.4104525E-1,6.293813E-1,-1.3003063E0,1.0581056E0,3.7581062E-1,-6.5113294E-1,-1.1102221E0,1.0573836E-1,-9.702655E-2,1.0733531E-1,-6.97386E-2,-1.2840073E-1,1.1111547E-1,-1.8991911E-1,-1.1829575E-1,2.4444051E-2,-1.1397921E-1,1.08006574E-1,9.20691E-2,-2.7244848E-1,-1.0382348E-1,9.211803E-2,-9.240659E-2,1.9583176E-1,-1.1382081E-1,8.314014E-2,3.5814482E-3,-1.6450076E-1,1.3165848E-1,4.386038E-2,-1.194912E-1,-1.13393165E-1,-2.7118245E-2,2.1914673E-1,-1.1660868E-1,7.163444E-2,-1.969919E-2,-1.12192474E-1,-1.6548507E-1,9.254886E-2,1.0870379E-1,-1.2927282E-1,1.0157509E-1,-1.0868149E-1,1.0182955E-1,-1.1691123E-1,-1.0887333E-1],"categories":[],"categories_nodes":[],"categories_segments":[],"categories_sizes":[],"default_left":[0,0,0,0,0,0,0,0,0,0,0,0,0,0,0,0,0,0,0,0,0,0,0,0,0,0,0,0,0,0,0,0,0,0,0,0,0,0,0,0,0,0,0,0,0,0,0,0,0,0,0,0,0,0,0,0,0,0,0,0,0,0,0,0,0,0,0,0,0,0,0,0,0,0,0,0,0,0,0,0,0,0,0,0,0,0,0,0,0,0,0,0,0],"id":18,"left_children":[1,3,5,7,9,11,13,15,17,19,-1,21,23,25,27,-1,29,31,33,35,37,39,41,43,45,47,49,51,53,55,-1,57,-1,59,61,-1,63,65,-1,67,69,71,-1,73,75,77,79,81,83,85,87,89,91,-1,-1,-1,-1,-1,-1,-1,-1,-1,-1,-1,-1,-1,-1,-1,-1,-1,-1,-1,-1,-1,-1,-1,-1,-1,-1,-1,-1,-1,-1,-1,-1,-1,-1,-1,-1,-1,-1,-1,-1],"loss_changes":[1.40215625E4,1.2298125E3,7.598685E3,6.425283E2,1.9226758E2,4.546621E3,4.6403066E3,3.8631348E1,3.8677722E2,8.256836E0,0E0,2.2211562E3,2.0337979E3,7.3631396E2,2.3466748E2,0E0,1.1083618E1,1.0959622E2,4.4132285E2,4.8203125E0,7.593512E1,1.798011E3,1.5873165E3,6.3230547E3,1.0647344E3,1.3036753E3,9.2240234E1,5.2352417E1,2.526233E1,6.4245605E0,0E0,1.02875885E2,0E0,2.8208496E1,2.9862177E2,0E0,3.8691406E0,3.9688454E0,0E0,1.8985312E3,2.7686292E3,1.4011748E3,0E0,3.122273E2,1.1436943E3,5.75542E2,1.353235E3,3.1746313E2,2.2196716E1,1.6850098E1,2.2494151E2,2.2286525E2,6.282959E-1,0E0,0E0,0E0,0E0,0E0,0E0,0E0,0E0,0E0,0E0,0E0,0E0,0E0,0E0,0E0,0E0,0E0,0E0,0E0,0E0,0E0,0E0,0E0,0E0,0E0,0E0,0E0,0E0,0E0,0E0,0E0,0E0,0E0,0E0,0E0,0E0,0E0,0E0,0E0,0E0],"parents":[2147483647,0,0,1,1,2,2,3,3,4,4,5,5,6,6,7,7,8,8,9,9,11,11,12,12,13,13,14,14,16,16,17,17,18,18,19,19,20,20,21,21,22,22,23,23,24,24,25,25,26,26,27,27,28,28,29,29,31,31,33,33,34,34,36,36,37,37,39,39,40,40,41,41,43,43,44,44,45,45,46,46,47,47,48,48,49,49,50,50,51,51,52,52],"right_children":[2,4,6,8,10,12,14,16,18,20,-1,22,24,26,28,-1,30,32,34,36,38,40,42,44,46,48,50,52,54,56,-1,58,-1,60,62,-1,64,66,-1,68,70,72,-1,74,76,78,80,82,84,86,88,90,92,-1,-1,-1,-1,-1,-1,-1,-1,-1,-1,-1,-1,-1,-1,-1,-1,-1,-1,-1,-1,-1,-1,-1,-1,-1,-1,-1,-1,-1,-1,-1,-1,-1,-1,-1,-1,-1,-1,-1,-1],"split_conditions":[1.553323E4,1E0,1.4061695E5,8E0,4.07E2,1.864342E8,3.0836E2,1.37E2,4.359791E6,